{"learner":{"attributes":{"best_iteration":"299","best_score":"0.20773195939612948"},"feature_names":[],"feature_types":[],"gradient_booster":{"model":{"gbtree_model_param":{"num_parallel_tree":"1","num_trees":"300"},"iteration_indptr":[0,1,2,3,4,5,6,7,8,9,10,11,12,13,14,15,16,17,18,19,20,21,22,23,24,25,26,27,28,29,30,31,32,33,34,35,36,37,38,39,40,41,42,43,44,45,46,47,48,49,50,51,52,53,54,55,56,57,58,59,60,61,62,63,64,65,66,67,68,69,70,71,72,73,74,75,76,77,78,79,80,81,82,83,84,85,86,87,88,89,90,91,92,93,94,95,96,97,98,99,100,101,102,103,104,105,106,107,108,109,110,111,112,113,114,115,116,117,118,119,120,121,122,123,124,125,126,127,128,129,130,131,132,133,134,135,136,137,138,139,140,141,142,143,144,145,146,147,148,149,150,151,152,153,154,155,156,157,158,159,160,161,162,163,164,165,166,167,168,169,170,171,172,173,174,175,176,177,178,179,180,181,182,183,184,185,186,187,188,189,190,191,192,193,194,195,196,197,198,199,200,201,202,203,204,205,206,207,208,209,210,211,212,213,214,215,216,217,218,219,220,221,222,223,224,225,226,227,228,229,230,231,232,233,234,235,236,237,238,239,240,241,242,243,244,245,246,247,248,249,250,251,252,253,254,255,256,257,258,259,260,261,262,263,264,265,266,267,268,269,270,271,272,273,274,275,276,277,278,279,280,281,282,283,284,285,286,287,288,289,290,291,292,293,294,295,296,297,298,299,300],"tree_info":[0,0,0,0,0,0,0,0,0,0,0,0,0,0,0,0,0,0,0,0,0,0,0,0,0,0,0,0,0,0,0,0,0,0,0,0,0,0,0,0,0,0,0,0,0,0,0,0,0,0,0,0,0,0,0,0,0,0,0,0,0,0,0,0,0,0,0,0,0,0,0,0,0,0,0,0,0,0,0,0,0,0,0,0,0,0,0,0,0,0,0,0,0,0,0,0,0,0,0,0,0,0,0,0,0,0,0,0,0,0,0,0,0,0,0,0,0,0,0,0,0,0,0,0,0,0,0,0,0,0,0,0,0,0,0,0,0,0,0,0,0,0,0,0,0,0,0,0,0,0,0,0,0,0,0,0,0,0,0,0,0,0,0,0,0,0,0,0,0,0,0,0,0,0,0,0,0,0,0,0,0,0,0,0,0,0,0,0,0,0,0,0,0,0,0,0,0,0,0,0,0,0,0,0,0,0,0,0,0,0,0,0,0,0,0,0,0,0,0,0,0,0,0,0,0,0,0,0,0,0,0,0,0,0,0,0,0,0,0,0,0,0,0,0,0,0,0,0,0,0,0,0,0,0,0,0,0,0,0,0,0,0,0,0,0,0,0,0,0,0,0,0,0,0,0,0,0,0,0,0,0,0,0,0,0,0,0,0,0,0,0,0,0,0,0,0,0,0,0,0],"trees":[{"base_weights":[-3.3957455E-3,-3.766617E-1,1.6050816E0,-5.1319945E-1,6.44124E-1,8.713068E-1,1.6858478E0,-6.0276306E-1,2.939577E-1,6.844512E-2,8.997769E-1,4.509974E-1,1.3467188E0,1.534061E0,1.8638409E0,-6.7839414E-2,2.5875157E-2,-2.966762E-2,5.6538798E-2,8.660537E-2,-2.7067212E-2,1.21750526E-1,7.15255E-2,-9.200401E-3,7.101972E-2,-1.1103562E-1,1.3838671E-1,8.445787E-2,1.5773895E-1,1.7986892E-1,2.0423602E-1],"categories":[],"categories_nodes":[],"categories_segments":[],"categories_sizes":[],"default_left":[0,0,0,0,0,0,0,0,0,0,0,0,0,0,0,0,0,0,0,0,0,0,0,0,0,0,0,0,0,0,0],"id":0,"left_children":[1,3,5,7,9,11,13,15,17,19,21,23,25,27,29,-1,-1,-1,-1,-1,-1,-1,-1,-1,-1,-1,-1,-1,-1,-1,-1],"loss_changes":[3.0619853E5,5.769354E4,5.6913906E3,2.6394297E4,7.1873145E3,1.9030571E3,2.3350469E3,2.1413406E4,5.846406E3,4.0626716E3,1.9817891E3,7.1195605E2,4.0953125E2,1.3941094E3,4.595E2,0E0,0E0,0E0,0E0,0E0,0E0,0E0,0E0,0E0,0E0,0E0,0E0,0E0,0E0,0E0,0E0],"parents":[2147483647,0,0,1,1,2,2,3,3,4,4,5,5,6,6,7,7,8,8,9,9,10,10,11,11,12,12,13,13,14,14],"right_children":[2,4,6,8,10,12,14,16,18,20,22,24,26,28,30,-1,-1,-1,-1,-1,-1,-1,-1,-1,-1,-1,-1,-1,-1,-1,-1],"split_conditions":[7.5865207E0,1.1074958E1,1.1034154E1,1E0,0E0,3.152872E0,4.5814514E0,1E0,0E0,7.01157E0,1.782065E0,-3.2215755E0,-1.5451106E1,-2.3809575E-1,1.6919075E1,-6.7839414E-2,2.5875157E-2,-2.966762E-2,5.6538798E-2,8.660537E-2,-2.7067212E-2,1.21750526E-1,7.15255E-2,-9.200401E-3,7.101972E-2,-1.1103562E-1,1.3838671E-1,8.445787E-2,1.5773895E-1,1.7986892E-1,2.0423602E-1],"split_indices":[639,2,39,210,36,2,2,330,36,26,22,120,158,130,2,0,0,0,0,0,0,0,0,0,0,0,0,0,0,0,0],"split_type":[0,0,0,0,0,0,0,0,0,0,0,0,0,0,0,0,0,0,0,0,0,0,0,0,0,0,0,0,0,0,0],"sum_hessian":[5.099975E5,4.139389E5,9.6058586E4,3.6510397E5,4.8834914E4,9.525895E3,8.6532695E4,3.28638E5,3.646599E4,1.5018206E4,3.3816707E4,5.056987E3,4.468908E3,4.6709777E4,3.9822914E4,3.021159E5,2.6522094E4,1.1481683E4,2.4984305E4,4.4798887E3,1.0538316E4,1.2421876E4,2.139483E4,1.6341748E3,3.4228118E3,6.612832E1,4.40278E3,2.7629927E3,4.3946785E4,2.9183332E4,1.0639584E4],"tree_param":{"num_deleted":"0","num_feature":"720","num_nodes":"31","size_leaf_vector":"1"}},{"base_weights":[-5.344498E-3,-3.440584E-1,1.4439675E0,-4.8167172E-1,4.7307953E-1,8.311845E-1,1.4938896E0,-5.766128E-1,3.1285733E-1,-9.171108E-2,7.2698724E-1,5.916495E-1,1.5147893E0,1.3921562E0,1.6938964E0,-8.239803E-2,-3.276582E-2,-2.5554404E-2,6.1674327E-2,6.178833E-2,-3.8399726E-2,4.9324546E-2,9.7761594E-2,1.0932603E-1,3.173261E-2,3.6049888E-2,1.6243124E-1,1.2785432E-1,1.571058E-1,1.6964772E-1,-1.8011169E-1],"categories":[],"categories_nodes":[],"categories_segments":[],"categories_sizes":[],"default_left":[0,0,0,0,0,0,0,0,0,0,0,0,0,0,0,0,0,0,0,0,0,0,0,0,0,0,0,0,0,0,0],"id":1,"left_children":[1,3,5,7,9,11,13,15,17,19,21,23,25,27,29,-1,-1,-1,-1,-1,-1,-1,-1,-1,-1,-1,-1,-1,-1,-1,-1],"loss_changes":[2.4992102E5,4.640385E4,2.9490781E3,2.664211E4,8.529758E3,1.1891074E3,1.812125E3,1.9428414E4,6.511907E3,3.826382E3,2.4033398E3,7.404066E2,2.3772803E2,1.1995312E3,2.7421094E2,0E0,0E0,0E0,0E0,0E0,0E0,0E0,0E0,0E0,0E0,0E0,0E0,0E0,0E0,0E0,0E0],"parents":[2147483647,0,0,1,1,2,2,3,3,4,4,5,5,6,6,7,7,8,8,9,9,10,10,11,11,12,12,13,13,14,14],"right_children":[2,4,6,8,10,12,14,16,18,20,22,24,26,28,30,-1,-1,-1,-1,-1,-1,-1,-1,-1,-1,-1,-1,-1,-1,-1,-1],"split_conditions":[7.931284E0,9.6463785E0,1.1034154E1,4.0601056E-2,0E0,9.6463785E0,8.217799E0,1.6797456E0,0E0,7.01157E0,1.4711306E1,0E0,-3.053278E0,4.92947E0,2.3617188E1,-8.239803E-2,-3.276582E-2,-2.5554404E-2,6.1674327E-2,6.178833E-2,-3.8399726E-2,4.9324546E-2,9.7761594E-2,1.0932603E-1,3.173261E-2,3.6049888E-2,1.6243124E-1,1.2785432E-1,1.571058E-1,1.6964772E-1,-1.8011169E-1],"split_indices":[639,2,39,10,36,2,2,19,36,26,2,129,31,31,631,0,0,0,0,0,0,0,0,0,0,0,0,0,0,0,0],"split_type":[0,0,0,0,0,0,0,0,0,0,0,0,0,0,0,0,0,0,0,0,0,0,0,0,0,0,0,0,0,0,0],"sum_hessian":[5.0910362E5,4.1266244E5,9.64412E4,3.5318356E5,5.9478863E4,7.2663164E3,8.917488E4,3.1548538E5,3.7698184E4,1.8446729E4,4.1032137E4,5.382244E3,1.8840724E3,5.911436E4,3.0060525E4,1.5824594E5,1.5723944E5,1.3133283E4,2.4564898E4,5.3812783E3,1.306545E4,2.1232863E4,1.9799271E4,1.9017803E3,3.4804639E3,1.6364708E2,1.7204253E3,3.615926E4,2.2955098E4,3.0038857E4,2.166707E1],"tree_param":{"num_deleted":"0","num_feature":"720","num_nodes":"31","size_leaf_vector":"1"}},{"base_weights":[1.8320463E-3,-3.1337762E-1,1.2599356E0,-4.25468E-1,5.075679E-1,6.677152E-1,1.3381884E0,-5.1754105E-1,3.6940554E-1,5.6428663E-2,7.0407057E-1,3.8479108E-1,1.1100233E0,1.213981E0,1.4830495E0,-6.313182E-2,7.3159114E-3,-2.0357419E-2,6.300953E-2,3.1767298E-2,-6.4177E-2,9.884676E-2,5.0843187E-2,8.8496424E-2,8.23482E-3,-9.0395905E-2,1.14804305E-1,6.117606E-2,1.2507503E-1,1.4296204E-1,1.6390303E-1],"categories":[],"categories_nodes":[],"categories_segments":[],"categories_sizes":[],"default_left":[0,0,0,0,0,0,0,0,0,0,0,0,0,0,0,0,0,0,0,0,0,0,0,0,0,0,0,0,0,0,0],"id":2,"left_children":[1,3,5,7,9,11,13,15,17,19,21,23,25,27,29,-1,-1,-1,-1,-1,-1,-1,-1,-1,-1,-1,-1,-1,-1,-1,-1],"loss_changes":[2.0138956E5,3.7368652E4,4.7141875E3,2.6150047E4,4.3248516E3,1.4858228E3,1.6151562E3,2.152104E4,5.5405635E3,2.7003513E3,1.8903203E3,1.095901E3,3.5577393E2,1.0707031E3,3.4335938E2,0E0,0E0,0E0,0E0,0E0,0E0,0E0,0E0,0E0,0E0,0E0,0E0,0E0,0E0,0E0,0E0],"parents":[2147483647,0,0,1,1,2,2,3,3,4,4,5,5,6,6,7,7,8,8,9,9,10,10,11,11,12,12,13,13,14,14],"right_children":[2,4,6,8,10,12,14,16,18,20,22,24,26,28,30,-1,-1,-1,-1,-1,-1,-1,-1,-1,-1,-1,-1,-1,-1,-1,-1],"split_conditions":[7.2417574E0,1.1074958E1,1.1034154E1,1E0,0E0,5.3606405E0,4.5814514E0,6.6318536E0,0E0,2.9264286E-1,3.9415298E0,-4.8776627E0,-1.2255843E1,-2.3809575E-1,1.7178822E1,-6.313182E-2,7.3159114E-3,-2.0357419E-2,6.300953E-2,3.1767298E-2,-6.4177E-2,9.884676E-2,5.0843187E-2,8.8496424E-2,8.23482E-3,-9.0395905E-2,1.14804305E-1,6.117606E-2,1.2507503E-1,1.4296204E-1,1.6390303E-1],"split_indices":[639,2,39,90,36,2,2,19,36,138,22,144,633,10,2,0,0,0,0,0,0,0,0,0,0,0,0,0,0,0,0],"split_type":[0,0,0,0,0,0,0,0,0,0,0,0,0,0,0,0,0,0,0,0,0,0,0,0,0,0,0,0,0,0,0],"sum_hessian":[5.0783112E5,4.0608894E5,1.01742195E5,3.573038E5,4.878512E4,1.1875734E4,8.986646E4,3.2021278E5,3.709104E4,1.4802408E4,3.3982715E4,7.24397E3,4.631764E3,4.8387355E4,4.1479105E4,2.684965E5,5.1716266E4,1.1598494E4,2.5492545E4,1.0772295E4,4.030114E3,1.3848011E4,2.0134703E4,2.7289573E3,4.515013E3,8.539586E1,4.546368E3,2.7853657E3,4.5601992E4,3.090363E4,1.0575473E4],"tree_param":{"num_deleted":"0","num_feature":"720","num_nodes":"31","size_leaf_vector":"1"}},{"base_weights":[-5.1857443E-3,-2.9401603E-1,1.1176523E0,-4.884543E-1,9.575795E-2,5.5332506E-1,1.2081561E0,-1.9442065E-2,-6.413213E-1,-1.7032349E-1,3.397653E-1,2.490739E-1,9.233698E-1,1.093849E0,1.3431375E0,3.3280283E-2,-5.6385975E-2,-9.097089E-2,-4.2043027E-2,-3.7081975E-2,5.4828834E-2,5.3062614E-2,-4.238685E-4,1.1197646E-1,1.1370376E-2,7.793828E-2,1.3886397E-1,1.3299076E-1,1.0005257E-1,1.2641586E-1,1.4354812E-1],"categories":[],"categories_nodes":[],"categories_segments":[],"categories_sizes":[],"default_left":[0,0,0,0,0,0,0,0,0,0,0,0,0,0,0,0,0,0,0,0,0,0,0,0,0,0,0,0,0,0,0],"id":3,"left_children":[1,3,5,7,9,11,13,15,17,19,21,23,25,27,29,-1,-1,-1,-1,-1,-1,-1,-1,-1,-1,-1,-1,-1,-1,-1,-1],"loss_changes":[1.6298694E5,3.0295121E4,5.251039E3,1.9121297E4,8.637969E3,1.6000039E3,1.3657812E3,1.2572384E4,1.19240625E4,9.16987E3,4.556618E3,9.193978E2,4.2853516E2,1.0558086E3,2.944922E2,0E0,0E0,0E0,0E0,0E0,0E0,0E0,0E0,0E0,0E0,0E0,0E0,0E0,0E0,0E0,0E0],"parents":[2147483647,0,0,1,1,2,2,3,3,4,4,5,5,6,6,7,7,8,8,9,9,10,10,11,11,12,12,13,13,14,14],"right_children":[2,4,6,8,10,12,14,16,18,20,22,24,26,28,30,-1,-1,-1,-1,-1,-1,-1,-1,-1,-1,-1,-1,-1,-1,-1,-1],"split_conditions":[6.8969936E0,4.8591394E0,1.1034154E1,3.9415298E0,2.4532766E0,3.152872E0,4.5814514E0,9.931422E0,9.5474935E-1,1.2503488E1,1.2141375E-1,-6.474223E-1,1.5880139E1,1E0,1.2503488E1,3.3280283E-2,-5.6385975E-2,-9.097089E-2,-4.2043027E-2,-3.7081975E-2,5.4828834E-2,5.3062614E-2,-4.238685E-4,1.1197646E-1,1.1370376E-2,7.793828E-2,1.3886397E-1,1.3299076E-1,1.0005257E-1,1.2641586E-1,1.4354812E-1],"split_indices":[639,0,39,22,135,2,2,37,19,2,5,137,2,565,2,0,0,0,0,0,0,0,0,0,0,0,0,0,0,0,0],"split_type":[0,0,0,0,0,0,0,0,0,0,0,0,0,0,0,0,0,0,0,0,0,0,0,0,0,0,0,0,0,0,0],"sum_hessian":[5.025638E5,3.9973878E5,1.02825016E5,2.6669703E5,1.3304177E5,1.4212364E4,8.861266E4,6.555829E4,2.0113875E5,6.3642336E4,6.939943E4,7.8004775E3,6.4118867E3,4.7985734E4,4.062692E4,3.980461E4,2.5753678E4,9.080523E4,1.1033352E5,4.9759637E4,1.38827E4,4.463463E4,2.4764799E4,1.0486119E3,6.7518657E3,4.8985947E3,1.5132921E3,1.359196E4,3.4393773E4,2.1906014E4,1.8720906E4],"tree_param":{"num_deleted":"0","num_feature":"720","num_nodes":"31","size_leaf_vector":"1"}},{"base_weights":[-1.1130491E-4,-2.676401E-1,1.0053498E0,-3.7841547E-1,3.7720183E-1,4.2734462E-1,1.0920291E0,-4.672355E-1,3.4132203E-1,5.787747E-1,-7.525781E-2,1.2897007E-1,8.8651127E-1,1.0088503E0,1.2621104E0,-6.408786E-2,-1.5164131E-2,6.079637E-2,-1.8673876E-2,4.4296615E-2,9.279566E-2,5.6803573E-2,-3.3996534E-2,5.754995E-2,-2.2539916E-2,7.721452E-2,1.5498172E-1,6.4483374E-2,1.0600145E-1,1.2647916E-1,-1.9094633E-1],"categories":[],"categories_nodes":[],"categories_segments":[],"categories_sizes":[],"default_left":[0,0,0,0,0,0,0,0,0,0,0,0,0,0,0,0,0,0,0,0,0,0,0,0,0,0,0,0,0,0,0],"id":4,"left_children":[1,3,5,7,9,11,13,15,17,19,21,23,25,27,29,-1,-1,-1,-1,-1,-1,-1,-1,-1,-1,-1,-1,-1,-1,-1,-1],"loss_changes":[1.3444866E5,2.820069E4,5.262289E3,2.1537785E4,5.278635E3,1.876825E3,1.2909844E3,1.6434664E4,5.2112397E3,1.898332E3,3.0378298E3,1.3142935E3,4.0813086E2,1.1419102E3,2.575039E2,0E0,0E0,0E0,0E0,0E0,0E0,0E0,0E0,0E0,0E0,0E0,0E0,0E0,0E0,0E0,0E0],"parents":[2147483647,0,0,1,1,2,2,3,3,4,4,5,5,6,6,7,7,8,8,9,9,10,10,11,11,12,12,13,13,14,14],"right_children":[2,4,6,8,10,12,14,16,18,20,22,24,26,28,30,-1,-1,-1,-1,-1,-1,-1,-1,-1,-1,-1,-1,-1,-1,-1,-1],"split_conditions":[6.5522304E0,9.6463785E0,1.0344628E1,4.0601056E-2,9.931422E0,5.3606405E0,8.217799E0,3.3653498E0,9.931422E0,1.8347654E1,7.01157E0,3.1505702E0,1E0,3.1232083E0,2.3617188E1,-6.408786E-2,-1.5164131E-2,6.079637E-2,-1.8673876E-2,4.4296615E-2,9.279566E-2,5.6803573E-2,-3.3996534E-2,5.754995E-2,-2.2539916E-2,7.721452E-2,1.5498172E-1,6.4483374E-2,1.0600145E-1,1.2647916E-1,-1.9094633E-1],"split_indices":[639,2,39,10,37,2,2,38,37,2,26,142,207,627,631,0,0,0,0,0,0,0,0,0,0,0,0,0,0,0,0],"split_type":[0,0,0,0,0,0,0,0,0,0,0,0,0,0,0,0,0,0,0,0,0,0,0,0,0,0,0,0,0,0,0],"sum_hessian":[4.998261E5,3.947843E5,1.0504179E5,3.3690828E5,5.7876004E4,1.3698924E4,9.134287E4,2.9989925E5,3.7009055E4,4.003842E4,1.7837584E4,8.304072E3,5.394851E3,6.1347594E4,2.9995271E4,1.9345648E5,1.0644275E5,2.4591533E4,1.2417522E4,2.8828371E4,1.1210052E4,5.1998164E3,1.2637767E4,3.673981E3,4.630091E3,4.603319E3,7.915325E2,7.5617505E3,5.3785844E4,2.9970535E4,2.4736198E1],"tree_param":{"num_deleted":"0","num_feature":"720","num_nodes":"31","size_leaf_vector":"1"}},{"base_weights":[-6.1821556E-3,-2.536434E-1,8.987143E-1,-3.6312392E-1,2.8870872E-1,4.3194982E-1,1.0074815E0,-4.2041808E-1,6.836356E-1,6.340139E-1,1.22636996E-1,2.1977487E-1,9.979419E-1,9.0228E-1,1.1339853E0,-4.974594E-2,2.7551591E-2,2.871353E-2,1.2421929E-1,5.319785E-2,1.430922E-1,2.1778147E-4,7.089209E-2,-5.5506476E-4,7.1279995E-2,1.0221906E-1,-1.9910939E-1,2.875754E-2,9.397203E-2,1.0888807E-1,1.299118E-1],"categories":[],"categories_nodes":[],"categories_segments":[],"categories_sizes":[],"default_left":[0,0,0,0,0,0,0,0,0,0,0,0,0,0,0,0,0,0,0,0,0,0,0,0,0,0,0,0,0,0,0],"id":5,"left_children":[1,3,5,7,9,11,13,15,17,19,21,23,25,27,29,-1,-1,-1,-1,-1,-1,-1,-1,-1,-1,-1,-1,-1,-1,-1,-1],"loss_changes":[1.1036162E5,2.297967E4,5.3726875E3,1.9312266E4,3.727502E3,2.4019468E3,1.1412891E3,1.6368992E4,3.7005718E3,1.7157119E3,3.0999163E3,1.6164219E3,3.9732715E2,1.0783633E3,2.8882422E2,0E0,0E0,0E0,0E0,0E0,0E0,0E0,0E0,0E0,0E0,0E0,0E0,0E0,0E0,0E0,0E0],"parents":[2147483647,0,0,1,1,2,2,3,3,4,4,5,5,6,6,7,7,8,8,9,9,10,10,11,11,12,12,13,13,14,14],"right_children":[2,4,6,8,10,12,14,16,18,20,22,24,26,28,30,-1,-1,-1,-1,-1,-1,-1,-1,-1,-1,-1,-1,-1,-1,-1,-1],"split_conditions":[6.207467E0,1.1208273E1,1.1034154E1,1E0,-5.514488E0,8.996988E0,4.5814514E0,1E0,3.291393E0,3.4584122E0,4.640162E-3,5.405696E0,1.2642969E1,-2.3809575E-1,1.8347654E1,-4.974594E-2,2.7551591E-2,2.871353E-2,1.2421929E-1,5.319785E-2,1.430922E-1,2.1778147E-4,7.089209E-2,-5.5506476E-4,7.1279995E-2,1.0221906E-1,-1.9910939E-1,2.875754E-2,9.397203E-2,1.0888807E-1,1.299118E-1],"split_indices":[639,0,39,87,279,2,2,450,38,38,10,19,14,10,2,0,0,0,0,0,0,0,0,0,0,0,0,0,0,0,0],"split_type":[0,0,0,0,0,0,0,0,0,0,0,0,0,0,0,0,0,0,0,0,0,0,0,0,0,0,0,0,0,0,0],"sum_hessian":[4.9284484E5,3.8701022E5,1.05834625E5,3.2200903E5,6.500121E4,2.0002158E4,8.583247E4,3.0529912E5,1.6709887E4,2.1108488E4,4.389272E4,1.4549381E4,5.4527773E3,4.6866277E4,3.896619E4,2.748707E5,3.0428447E4,9.7735205E3,6.9363657E3,1.8714027E4,2.3944607E3,3.641236E4,7.4803604E3,9.986345E3,4.5630356E3,5.40955E3,4.3227257E1,2.691136E3,4.417514E4,3.0612291E4,8.353901E3],"tree_param":{"num_deleted":"0","num_feature":"720","num_nodes":"31","size_leaf_vector":"1"}},{"base_weights":[5.3559057E-3,-2.179583E-1,8.284781E-1,-3.02233E-1,4.2853412E-1,3.9090693E-1,9.3190455E-1,-3.798792E-1,4.3549037E-1,-9.043281E-2,6.390756E-1,1.7282157E-1,8.692484E-1,1.0481473E0,8.22888E-1,-1.4223156E-3,-5.2999E-2,8.872388E-2,2.5381103E-2,9.570835E-2,-4.2753186E-2,5.2171897E-2,1.00635745E-1,5.721434E-3,1.1942156E-1,7.690525E-2,1.3630487E-1,1.0520927E-1,-1.5945159E-1,6.762072E-2,1.002116E-1],"categories":[],"categories_nodes":[],"categories_segments":[],"categories_sizes":[],"default_left":[0,0,0,0,0,0,0,0,0,0,0,0,0,0,0,0,0,0,0,0,0,0,0,0,0,0,0,0,0,0,0],"id":6,"left_children":[1,3,5,7,9,11,13,15,17,19,21,23,25,27,29,-1,-1,-1,-1,-1,-1,-1,-1,-1,-1,-1,-1,-1,-1,-1,-1],"loss_changes":[9.014861E4,2.1018088E4,4.7361875E3,1.9549361E4,4.8610996E3,2.0873186E3,1.0718594E3,1.6948816E4,2.6671816E3,4.534679E3,1.3636514E3,1.6229961E3,3.0897217E2,4.2878125E2,1.1478457E3,0E0,0E0,0E0,0E0,0E0,0E0,0E0,0E0,0E0,0E0,0E0,0E0,0E0,0E0,0E0,0E0],"parents":[2147483647,0,0,1,1,2,2,3,3,4,4,5,5,6,6,7,7,8,8,9,9,10,10,11,11,12,12,13,13,14,14],"right_children":[2,4,6,8,10,12,14,16,18,20,22,24,26,28,30,-1,-1,-1,-1,-1,-1,-1,-1,-1,-1,-1,-1,-1,-1,-1,-1],"split_conditions":[6.207467E0,1E0,1.1034154E1,1E0,0E0,7.5684586E0,-1.468688E0,-5.514488E0,7.01157E0,3.885716E0,7.4016366E0,1E0,1E0,8.1796776E1,1.6065929E0,-1.4223156E-3,-5.2999E-2,8.872388E-2,2.5381103E-2,9.570835E-2,-4.2753186E-2,5.2171897E-2,1.00635745E-1,5.721434E-3,1.1942156E-1,7.690525E-2,1.3630487E-1,1.0520927E-1,-1.5945159E-1,6.762072E-2,1.002116E-1],"split_indices":[639,90,39,210,36,2,4,39,26,16,486,211,207,7,248,0,0,0,0,0,0,0,0,0,0,0,0,0,0,0,0],"split_type":[0,0,0,0,0,0,0,0,0,0,0,0,0,0,0,0,0,0,0,0,0,0,0,0,0,0,0,0,0,0,0],"sum_hessian":[4.9042953E5,3.8577025E5,1.0465927E5,3.412823E5,4.4487945E4,2.0009389E4,8.464988E4,3.0878303E5,3.2499277E4,1.2839711E4,3.1648236E4,1.3744403E4,6.2649854E3,4.0963008E4,4.368688E4,8.986975E4,2.1891328E5,9.320309E3,2.3178969E4,3.1255137E3,9.714197E3,2.398636E4,7.661877E3,1.2347858E4,1.3965454E3,5.2103276E3,1.0546578E3,4.0902543E4,6.0464005E1,2.4027477E4,1.9659402E4],"tree_param":{"num_deleted":"0","num_feature":"720","num_nodes":"31","size_leaf_vector":"1"}},{"base_weights":[-5.210919E-3,-1.9879018E-1,8.1677955E-1,1.9367166E-1,-3.480203E-1,6.997583E-1,9.6322495E-1,-2.5252786E-1,4.462908E-1,-4.9635234E-1,2.1970283E-2,5.888766E-1,9.2973226E-1,8.71201E-1,1.0729916E0,3.8008794E-2,-5.6184728E-2,3.5161596E-2,9.271998E-2,-5.49917E-2,3.6256436E-2,-2.5998322E-2,2.4208812E-2,4.264602E-2,8.497203E-2,-2.4642389E-1,9.370405E-2,8.07123E-2,1.0964052E-1,-2.8049502E-1,1.0777128E-1],"categories":[],"categories_nodes":[],"categories_segments":[],"categories_sizes":[],"default_left":[0,0,0,0,0,0,0,0,0,0,0,0,0,0,0,0,0,0,0,0,0,0,0,0,0,0,0,0,0,0,0],"id":7,"left_children":[1,3,5,7,9,11,13,15,17,19,21,23,25,27,29,-1,-1,-1,-1,-1,-1,-1,-1,-1,-1,-1,-1,-1,-1,-1,-1],"loss_changes":[7.6966945E4,2.29293E4,1.5793672E3,1.215743E4,1.5567082E4,1.3063691E3,4.126914E2,7.6297563E3,3.1351729E3,9.31559E3,5.0380146E3,1.4647178E3,4.1580957E2,3.2062695E2,3.4483008E2,0E0,0E0,0E0,0E0,0E0,0E0,0E0,0E0,0E0,0E0,0E0,0E0,0E0,0E0,0E0,0E0],"parents":[2147483647,0,0,1,1,2,2,3,3,4,4,5,5,6,6,7,7,8,8,9,9,10,10,11,11,12,12,13,13,14,14],"right_children":[2,4,6,8,10,12,14,16,18,20,22,24,26,28,30,-1,-1,-1,-1,-1,-1,-1,-1,-1,-1,-1,-1,-1,-1,-1,-1],"split_conditions":[7.5865207E0,3.9415298E0,4.5814514E0,0E0,6.0135274E0,6.2227387E0,1.2503488E1,1.0628896E1,3.9415298E0,5.610761E0,2.4532766E0,1.6065929E0,-1.7853504E1,1.3776436E1,-2.6131418E1,3.8008794E-2,-5.6184728E-2,3.5161596E-2,9.271998E-2,-5.49917E-2,3.6256436E-2,-2.5998322E-2,2.4208812E-2,4.264602E-2,8.497203E-2,-2.4642389E-1,9.370405E-2,8.07123E-2,1.0964052E-1,-2.8049502E-1,1.0777128E-1],"split_indices":[639,22,2,36,0,31,2,14,622,22,135,488,496,126,34,0,0,0,0,0,0,0,0,0,0,0,0,0,0,0,0],"split_type":[0,0,0,0,0,0,0,0,0,0,0,0,0,0,0,0,0,0,0,0,0,0,0,0,0,0,0,0,0,0,0],"sum_hessian":[4.8370088E5,3.9150253E5,9.219833E4,1.0785452E5,2.8364803E5,5.1250766E4,4.0947562E4,3.8988824E4,6.8865695E4,2.0247422E5,8.117381E4,3.458109E4,1.6669674E4,2.2278826E4,1.8668736E4,1.2803354E4,2.6185469E4,5.7539777E4,1.1325921E4,1.9058888E5,1.1885336E4,3.5588098E4,4.558572E4,2.131301E4,1.326808E4,3.5095486E1,1.6634578E4,1.7347479E4,4.931347E3,2.1978752E1,1.8646758E4],"tree_param":{"num_deleted":"0","num_feature":"720","num_nodes":"31","size_leaf_vector":"1"}},{"base_weights":[-1.1701479E-3,-1.8866336E-1,6.86898E-1,-2.7168223E-1,4.1510317E-1,3.1497148E-1,7.9295653E-1,-4.2158577E-1,3.3302903E-2,9.495707E-3,6.123731E-1,1.7008223E-1,8.5806006E-1,7.193348E-1,9.502435E-1,-1.3045668E-2,-6.0465377E-2,-4.1833505E-2,1.5871895E-2,-2.0586114E-2,1.0185923E-1,4.5885913E-2,9.26605E-2,-2.6475142E-3,6.007228E-2,-2.1903105E-1,8.842839E-2,9.426697E-2,6.365664E-2,9.544777E-2,-2.9684332E-1],"categories":[],"categories_nodes":[],"categories_segments":[],"categories_sizes":[],"default_left":[0,0,0,0,0,0,0,0,0,0,0,0,0,0,0,0,0,0,0,0,0,0,0,0,0,0,0,0,0,0,0],"id":8,"left_children":[1,3,5,7,9,11,13,15,17,19,21,23,25,27,29,-1,-1,-1,-1,-1,-1,-1,-1,-1,-1,-1,-1,-1,-1,-1,-1],"loss_changes":[6.1795906E4,1.8868436E4,4.0459219E3,1.5129598E4,3.6409375E3,1.790919E3,9.235469E2,1.1825109E4,6.1772476E3,3.2361462E3,1.476376E3,1.5210365E3,3.851206E2,1.0044512E3,4.2502344E2,0E0,0E0,0E0,0E0,0E0,0E0,0E0,0E0,0E0,0E0,0E0,0E0,0E0,0E0,0E0,0E0],"parents":[2147483647,0,0,1,1,2,2,3,3,4,4,5,5,6,6,7,7,8,8,9,9,10,10,11,11,12,12,13,13,14,14],"right_children":[2,4,6,8,10,12,14,16,18,20,22,24,26,28,30,-1,-1,-1,-1,-1,-1,-1,-1,-1,-1,-1,-1,-1,-1,-1,-1],"split_conditions":[5.862704E0,4.0601056E-2,1.0689392E1,4.8591394E0,0E0,1.0685314E1,8.217799E0,0E0,0E0,4.256042E0,1.0343852E1,4.8469877E0,-1.2193674E1,1E0,2.2659348E1,-1.3045668E-2,-6.0465377E-2,-4.1833505E-2,1.5871895E-2,-2.0586114E-2,1.0185923E-1,4.5885913E-2,9.26605E-2,-2.6475142E-3,6.007228E-2,-2.1903105E-1,8.842839E-2,9.426697E-2,6.365664E-2,9.544777E-2,-2.9684332E-1],"split_indices":[639,10,159,0,36,122,2,10,636,24,126,19,379,445,495,0,0,0,0,0,0,0,0,0,0,0,0,0,0,0,0],"split_type":[0,0,0,0,0,0,0,0,0,0,0,0,0,0,0,0,0,0,0,0,0,0,0,0,0,0,0,0,0,0,0],"sum_hessian":[4.790059E5,3.7643188E5,1.0257403E5,3.3092916E5,4.5502734E4,2.276069E4,7.981334E4,2.2187484E5,1.09054305E5,1.4889476E4,3.0613258E4,1.7968287E4,4.792401E3,5.436987E4,2.544347E4,8.5657414E4,1.3621742E5,2.370119E4,8.535312E4,1.227137E4,2.6181047E3,2.0567652E4,1.0045605E4,1.2337855E4,5.630432E3,4.0171448E1,4.7522295E3,1.4698452E4,3.9671418E4,2.5416764E4,2.6707264E1],"tree_param":{"num_deleted":"0","num_feature":"720","num_nodes":"31","size_leaf_vector":"1"}},{"base_weights":[-4.5150234E-3,-1.6254944E-1,7.1026397E-1,-2.611704E-1,3.8287133E-1,6.700938E-1,1.0717674E0,-5.1341254E-1,-5.6063347E-2,4.50998E-2,5.306409E-1,5.6338286E-1,8.3527976E-1,7.478197E-1,1.1112933E0,-5.70856E-2,5.759089E-2,-2.598676E-2,2.7874922E-2,-2.4179539E-2,5.8771797E-2,2.2074796E-2,6.618672E-2,4.608841E-2,8.0112614E-2,7.7893086E-2,1.0256636E-1,-1.2532677E-1,8.6100206E-2,1.00190856E-1,1.2233601E-1],"categories":[],"categories_nodes":[],"categories_segments":[],"categories_sizes":[],"default_left":[0,0,0,0,0,0,0,0,0,0,0,0,0,0,0,0,0,0,0,0,0,0,0,0,0,0,0,0,0,0,0],"id":9,"left_children":[1,3,5,7,9,11,13,15,17,19,21,23,25,27,29,-1,-1,-1,-1,-1,-1,-1,-1,-1,-1,-1,-1,-1,-1,-1,-1],"loss_changes":[5.3515098E4,2.086921E4,1.2449414E3,1.6998836E4,2.9652812E3,1.3604102E3,1.0898828E2,9.220742E3,1.23655E4,2.81505E3,1.6805527E3,1.1426709E3,3.2423242E2,2.130141E2,9.2456055E1,0E0,0E0,0E0,0E0,0E0,0E0,0E0,0E0,0E0,0E0,0E0,0E0,0E0,0E0,0E0,0E0],"parents":[2147483647,0,0,1,1,2,2,3,3,4,4,5,5,6,6,7,7,8,8,9,9,10,10,11,11,12,12,13,13,14,14],"right_children":[2,4,6,8,10,12,14,16,18,20,22,24,26,28,30,-1,-1,-1,-1,-1,-1,-1,-1,-1,-1,-1,-1,-1,-1,-1,-1],"split_conditions":[7.931284E0,9.6463785E0,1E0,2.4532766E0,0E0,6.009981E0,-8.780545E0,1E0,3.309266E0,1.7255431E0,-5.0925245E0,6.905493E0,1.8347654E1,-8.993515E0,5.4363337E0,-5.70856E-2,5.759089E-2,-2.598676E-2,2.7874922E-2,-2.4179539E-2,5.8771797E-2,2.2074796E-2,6.618672E-2,4.608841E-2,8.0112614E-2,7.7893086E-2,1.0256636E-1,-1.2532677E-1,8.6100206E-2,1.00190856E-1,1.2233601E-1],"split_indices":[639,2,92,15,36,2,366,87,38,39,15,31,2,120,0,0,0,0,0,0,0,0,0,0,0,0,0,0,0,0,0],"split_type":[0,0,0,0,0,0,0,0,0,0,0,0,0,0,0,0,0,0,0,0,0,0,0,0,0,0,0,0,0,0,0],"sum_hessian":[4.737519E5,3.879735E5,8.5778414E4,3.2856425E5,5.940924E4,7.720254E4,8.57588E3,1.4735028E5,1.8121398E5,1.8081006E4,4.132823E4,4.6905668E4,3.0296871E4,9.347471E2,7.6411333E3,1.399697E5,7.3805796E3,1.1264556E5,6.856842E4,1.1827878E4,6.2531274E3,1.229532E4,2.903291E4,3.2777266E4,1.4128399E4,2.3381588E4,6.9152837E3,4.9500168E1,8.8524695E2,3.8718677E3,3.7692654E3],"tree_param":{"num_deleted":"0","num_feature":"720","num_nodes":"31","size_leaf_vector":"1"}},{"base_weights":[-6.298912E-3,-1.7165808E-1,5.6684446E-1,-2.1688613E-1,7.4360454E-1,2.712097E-1,6.8010664E-1,-2.8554776E-1,3.9847565E-1,5.797088E-1,1.2200191E0,5.450276E-1,1.6822953E-2,6.401833E-1,9.837299E-1,-5.2902307E-2,-8.715364E-3,4.3201325E-3,5.2979942E-2,2.9974869E-2,8.175126E-2,1.2357216E-1,-1.7483738E-1,1.1442391E-1,4.365257E-2,-2.313934E-2,4.997632E-2,5.357623E-2,7.745143E-2,9.8985545E-2,-1.3103308E-1],"categories":[],"categories_nodes":[],"categories_segments":[],"categories_sizes":[],"default_left":[0,0,0,0,0,0,0,0,0,0,0,0,0,0,0,0,0,0,0,0,0,0,0,0,0,0,0,0,0,0,0],"id":10,"left_children":[1,3,5,7,9,11,13,15,17,19,21,23,25,27,29,-1,-1,-1,-1,-1,-1,-1,-1,-1,-1,-1,-1,-1,-1,-1,-1],"loss_changes":[4.4335734E4,1.5029061E4,3.507164E3,1.4617569E4,1.3341865E3,2.021105E3,9.173594E2,1.503384E4,1.6202285E3,8.467256E2,2.0608545E2,9.080386E2,1.8033312E3,9.384629E2,1.2494141E2,0E0,0E0,0E0,0E0,0E0,0E0,0E0,0E0,0E0,0E0,0E0,0E0,0E0,0E0,0E0,0E0],"parents":[2147483647,0,0,1,1,2,2,3,3,4,4,5,5,6,6,7,7,8,8,9,9,10,10,11,11,12,12,13,13,14,14],"right_children":[2,4,6,8,10,12,14,16,18,20,22,24,26,28,30,-1,-1,-1,-1,-1,-1,-1,-1,-1,-1,-1,-1,-1,-1,-1,-1],"split_conditions":[5.173177E0,1E0,1.1034154E1,1.2503488E1,1.0068578E1,3.6761367E0,1E0,2.4532766E0,-5.0925245E0,2.7539737E0,1.787232E1,-2.7023294E0,4.6299314E0,4.5814514E0,2.9900671E1,-5.2902307E-2,-8.715364E-3,4.3201325E-3,5.2979942E-2,2.9974869E-2,8.175126E-2,1.2357216E-1,-1.7483738E-1,1.1442391E-1,4.365257E-2,-2.313934E-2,4.997632E-2,5.357623E-2,7.745143E-2,9.8985545E-2,-1.3103308E-1],"split_indices":[639,102,39,2,156,22,91,15,255,158,146,17,271,2,624,0,0,0,0,0,0,0,0,0,0,0,0,0,0,0,0],"split_type":[0,0,0,0,0,0,0,0,0,0,0,0,0,0,0,0,0,0,0,0,0,0,0,0,0,0,0,0,0,0,0],"sum_hessian":[4.6780025E5,3.6305497E5,1.0474528E5,3.4596E5,1.7094984E4,2.9014791E4,7.573049E4,3.1123334E5,3.4726656E4,1.272095E4,4.374033E3,1.3973158E4,1.5041632E4,6.693266E4,8.797838E3,1.3973933E5,1.7149402E5,9.372436E3,2.5354223E4,5.843643E3,6.877307E3,4.3515977E3,2.2435715E1,2.1408083E3,1.1832351E4,9.935574E3,5.1060576E3,3.766167E4,2.9270984E4,8.774976E3,2.2862106E1],"tree_param":{"num_deleted":"0","num_feature":"720","num_nodes":"31","size_leaf_vector":"1"}},{"base_weights":[1.8111215E-3,-1.4244622E-1,5.488157E-1,-2.9335856E-1,1.306194E-1,2.6543713E-1,6.353094E-1,2.6811507E-1,-4.1980377E-1,4.7064435E-1,-5.032762E-2,-1.9426723E-1,4.2533216E-1,5.776827E-1,8.670219E-1,-5.8320626E-3,5.527972E-2,-2.6654849E-2,-6.8542E-2,3.7325505E-2,1.6674659E-1,3.9175123E-2,-3.0715723E-2,-6.3316666E-2,3.0744512E-2,3.3907216E-2,9.632775E-2,2.5665238E-2,6.296994E-2,-2.829174E-1,8.720126E-2],"categories":[],"categories_nodes":[],"categories_segments":[],"categories_sizes":[],"default_left":[0,0,0,0,0,0,0,0,0,0,0,0,0,0,0,0,0,0,0,0,0,0,0,0,0,0,0,0,0,0,0],"id":11,"left_children":[1,3,5,7,9,11,13,15,17,19,21,23,25,27,29,-1,-1,-1,-1,-1,-1,-1,-1,-1,-1,-1,-1,-1,-1,-1,-1],"loss_changes":[3.6662203E4,1.5150635E4,2.3763223E3,1.6811137E4,8.0516567E3,1.6668076E3,9.9140234E2,4.0447803E3,7.8671133E3,5.2972373E3,9.697793E3,1.2888745E3,7.8035474E2,9.932949E2,2.753457E2,0E0,0E0,0E0,0E0,0E0,0E0,0E0,0E0,0E0,0E0,0E0,0E0,0E0,0E0,0E0,0E0],"parents":[2147483647,0,0,1,1,2,2,3,3,4,4,5,5,6,6,7,7,8,8,9,9,10,10,11,11,12,12,13,13,14,14],"right_children":[2,4,6,8,10,12,14,16,18,20,22,24,26,28,30,-1,-1,-1,-1,-1,-1,-1,-1,-1,-1,-1,-1,-1,-1,-1,-1],"split_conditions":[6.207467E0,3.390002E0,1.1034154E1,-5.5926666E0,-4.8249617E0,-3.7987695E0,1.2503488E1,4.4622884E0,1.2141375E-1,1E0,3.9415298E0,1.4833726E0,1E0,6.450929E0,-2.6131418E1,-5.8320626E-3,5.527972E-2,-2.6654849E-2,-6.8542E-2,3.7325505E-2,1.6674659E-1,3.9175123E-2,-3.0715723E-2,-6.3316666E-2,3.0744512E-2,3.3907216E-2,9.632775E-2,2.5665238E-2,6.296994E-2,-2.829174E-1,8.720126E-2],"split_indices":[519,158,39,158,39,360,2,139,5,87,22,371,90,507,34,0,0,0,0,0,0,0,0,0,0,0,0,0,0,0,0],"split_type":[0,0,0,0,0,0,0,0,0,0,0,0,0,0,0,0,0,0,0,0,0,0,0,0,0,0,0,0,0,0,0],"sum_hessian":[4.646092E5,3.676519E5,9.695728E4,2.3678842E5,1.3086347E5,2.267416E4,7.4283125E4,4.3523484E4,1.9326494E5,4.5451707E4,8.541176E4,5.851282E3,1.6822877E4,5.94912E4,1.4791924E4,2.027528E4,2.3248205E4,1.2255509E5,7.070984E4,4.2032684E4,3.419026E3,3.1386275E4,5.4025484E4,3.1208723E3,2.7304102E3,1.44995E4,2.3233774E3,8.29612E3,5.119508E4,1.9182472E1,1.4772741E4],"tree_param":{"num_deleted":"0","num_feature":"720","num_nodes":"31","size_leaf_vector":"1"}},{"base_weights":[3.3092294E-3,-1.0782042E-1,5.7462955E-1,-1.8046744E-1,4.666245E-1,6.9085425E-1,4.5625094E-1,-2.3283298E-1,6.6707456E-1,4.234453E-2,5.8965707E-1,6.02167E-1,8.312596E-1,2.612292E-2,5.2965057E-1,-3.020525E-2,3.4087244E-2,2.8740842E-2,9.5139526E-2,8.967982E-2,-2.9077208E-2,7.8142904E-2,3.012316E-2,-3.1892294E-1,6.0780462E-2,-2.951899E-2,8.525836E-2,-4.424961E-2,2.9160405E-2,-2.2794766E-2,5.6524366E-2],"categories":[],"categories_nodes":[],"categories_segments":[],"categories_sizes":[],"default_left":[0,0,0,0,0,0,0,0,0,0,0,0,0,0,0,0,0,0,0,0,0,0,0,0,0,0,0,0,0,0,0],"id":12,"left_children":[1,3,5,7,9,11,13,15,17,19,21,23,25,27,29,-1,-1,-1,-1,-1,-1,-1,-1,-1,-1,-1,-1,-1,-1,-1,-1],"loss_changes":[2.923124E4,1.6084776E4,1.0311836E3,1.5185916E4,2.258754E3,4.7053906E2,1.1726855E3,1.2797207E4,2.1490078E3,2.769234E3,1.8551572E3,4.975547E2,3.519453E2,6.7388684E2,8.557344E2,0E0,0E0,0E0,0E0,0E0,0E0,0E0,0E0,0E0,0E0,0E0,0E0,0E0,0E0,0E0,0E0],"parents":[2147483647,0,0,1,1,2,2,3,3,4,4,5,5,6,6,7,7,8,8,9,9,10,10,11,11,12,12,13,13,14,14],"right_children":[2,4,6,8,10,12,14,16,18,20,22,24,26,28,30,-1,-1,-1,-1,-1,-1,-1,-1,-1,-1,-1,-1,-1,-1,-1,-1],"split_conditions":[8.6208105E0,1.3286067E1,-8.567604E-1,1E0,0E0,4.92947E0,-6.1075454E0,1E0,2.7964988E0,2.3748658E0,1.0741172E-1,-2.8616465E1,-2.4448568E1,-1.3938919E-1,-2.3809575E-1,-3.020525E-2,3.4087244E-2,2.8740842E-2,9.5139526E-2,8.967982E-2,-2.9077208E-2,7.8142904E-2,3.012316E-2,-3.1892294E-1,6.0780462E-2,-2.951899E-2,8.525836E-2,-4.424961E-2,2.9160405E-2,-2.2794766E-2,5.6524366E-2],"split_indices":[639,6,4,87,516,31,0,330,158,376,3,18,38,31,490,0,0,0,0,0,0,0,0,0,0,0,0,0,0,0,0],"split_type":[0,0,0,0,0,0,0,0,0,0,0,0,0,0,0,0,0,0,0,0,0,0,0,0,0,0,0,0,0,0,0],"sum_hessian":[4.6040044E5,3.8542988E5,7.4970586E4,3.4215944E5,4.327042E4,3.782701E4,3.7143574E4,3.222499E5,1.9909541E4,9.727232E3,3.3543188E4,2.3186508E4,1.4640504E4,5.4146465E3,3.172893E4,2.8755578E5,3.4694117E4,8.526172E3,1.1383369E4,2.72804E3,6.999193E3,2.0146332E4,1.3396856E4,3.3587288E1,2.315292E4,2.7176068E2,1.4368743E4,1.95792E3,3.4567266E3,1.4235371E3,3.0305393E4],"tree_param":{"num_deleted":"0","num_feature":"720","num_nodes":"31","size_leaf_vector":"1"}},{"base_weights":[1.7229338E-3,-1.2617725E-1,4.4171813E-1,-2.766362E-1,1.3191289E-1,3.3245054E-1,7.0244783E-1,2.9935163E-1,-3.906034E-1,5.192483E-1,-2.8600829E-2,2.7198017E-1,9.285253E-1,1.0544193E0,6.63607E-1,-2.0396031E-2,5.279983E-2,-4.5696747E-2,1.9913914E-2,1.8494591E-2,8.247582E-2,3.399138E-2,-2.2596447E-2,-4.857554E-3,4.1183766E-2,1.6564862E-1,8.7907664E-2,1.07065134E-1,-3.4343046E-1,5.950957E-2,8.5546166E-2],"categories":[],"categories_nodes":[],"categories_segments":[],"categories_sizes":[],"default_left":[0,0,0,0,0,0,0,0,0,0,0,0,0,0,0,0,0,0,0,0,0,0,0,0,0,0,0,0,0,0,0],"id":13,"left_children":[1,3,5,7,9,11,13,15,17,19,21,23,25,27,29,-1,-1,-1,-1,-1,-1,-1,-1,-1,-1,-1,-1,-1,-1,-1,-1],"loss_changes":[2.5675969E4,1.3727074E4,2.9272363E3,1.4659248E4,8.094007E3,2.609849E3,4.1414648E2,4.245157E3,7.296412E3,3.895496E3,6.694544E3,2.947484E3,2.386084E2,2.2329199E2,3.5875E2,0E0,0E0,0E0,0E0,0E0,0E0,0E0,0E0,0E0,0E0,0E0,0E0,0E0,0E0,0E0,0E0],"parents":[2147483647,0,0,1,1,2,2,3,3,4,4,5,5,6,6,7,7,8,8,9,9,10,10,11,11,12,12,13,13,14,14],"right_children":[2,4,6,8,10,12,14,16,18,20,22,24,26,28,30,-1,-1,-1,-1,-1,-1,-1,-1,-1,-1,-1,-1,-1,-1,-1,-1],"split_conditions":[4.8284135E0,3.3912346E0,8.217799E0,-6.94361E0,-5.8592515E0,1E0,-3.1133106E0,-7.147776E-2,1.0112315E1,1E0,3.9415298E0,1.0344628E1,-1.3971455E1,1.9851767E1,1.8347654E1,-2.0396031E-2,5.279983E-2,-4.5696747E-2,1.9913914E-2,1.8494591E-2,8.247582E-2,3.399138E-2,-2.2596447E-2,-4.857554E-3,4.1183766E-2,1.6564862E-1,8.7907664E-2,1.07065134E-1,-3.4343046E-1,5.950957E-2,8.5546166E-2],"split_indices":[639,38,2,38,39,92,17,139,31,85,22,39,255,255,2,0,0,0,0,0,0,0,0,0,0,0,0,0,0,0,0],"split_type":[0,0,0,0,0,0,0,0,0,0,0,0,0,0,0,0,0,0,0,0,0,0,0,0,0,0,0,0,0,0,0],"sum_hessian":[4.5625306E5,3.5349728E5,1.0275579E5,2.2331255E5,1.30184734E5,7.2411555E4,3.0344238E4,3.6886625E4,1.8642592E5,3.8142023E4,9.204271E4,6.5743484E4,6.668064E3,3.0131619E3,2.7331076E4,1.1522547E4,2.5364078E4,1.6756947E5,1.885646E4,1.8213553E4,1.992847E4,3.2101852E4,5.9940855E4,1.9970777E4,4.577271E4,4.2206903E2,6.245995E3,3.0030637E3,1.009814E1,2.0142346E4,7.188731E3],"tree_param":{"num_deleted":"0","num_feature":"720","num_nodes":"31","size_leaf_vector":"1"}},{"base_weights":[-1.994892E-3,-1.14541374E-1,4.2540917E-1,-2.4768712E-1,1.531279E-1,3.3313623E-1,6.493038E-1,-3.3343711E-1,2.0765388E-1,5.8506444E-2,5.160115E-1,2.7472556E-1,8.321438E-1,5.5853474E-1,8.2157934E-1,-4.8598956E-2,-7.2994228E-3,-1.9547006E-2,5.7674497E-2,2.1019753E-3,1.1037212E-1,9.5517926E-2,4.0602725E-2,1.1154025E-2,4.8166018E-2,1.4347364E-1,7.956199E-2,-3.322856E-1,5.6354444E-2,-2.58425E-1,8.291079E-2],"categories":[],"categories_nodes":[],"categories_segments":[],"categories_sizes":[],"default_left":[0,0,0,0,0,0,0,0,0,0,0,0,0,0,0,0,0,0,0,0,0,0,0,0,0,0,0,0,0,0,0],"id":14,"left_children":[1,3,5,7,9,11,13,15,17,19,21,23,25,27,29,-1,-1,-1,-1,-1,-1,-1,-1,-1,-1,-1,-1,-1,-1,-1,-1],"loss_changes":[2.174715E4,1.2753914E4,1.9466113E3,9.331375E3,4.0818376E3,1.9449023E3,4.29583E2,7.9904004E3,5.635381E3,3.6945242E3,1.1871685E3,2.0173848E3,1.5275586E2,3.5215527E2,2.4541602E2,0E0,0E0,0E0,0E0,0E0,0E0,0E0,0E0,0E0,0E0,0E0,0E0,0E0,0E0,0E0,0E0],"parents":[2147483647,0,0,1,1,2,2,3,3,4,4,5,5,6,6,7,7,8,8,9,9,10,10,11,11,12,12,13,13,14,14],"right_children":[2,4,6,8,10,12,14,16,18,20,22,24,26,28,30,-1,-1,-1,-1,-1,-1,-1,-1,-1,-1,-1,-1,-1,-1,-1,-1],"split_conditions":[6.207467E0,4.8591394E0,8.217799E0,6.6318536E0,1.2305328E1,1E0,1.6919075E1,3.3770595E0,2.0501142E0,1.9192755E1,-5.4404387E0,3.3830519E0,-1.3971455E1,-1.8367865E1,-2.6131418E1,-4.8598956E-2,-7.2994228E-3,-1.9547006E-2,5.7674497E-2,2.1019753E-3,1.1037212E-1,9.5517926E-2,4.0602725E-2,1.1154025E-2,4.8166018E-2,1.4347364E-1,7.956199E-2,-3.322856E-1,5.6354444E-2,-2.58425E-1,8.291079E-2],"split_indices":[399,120,2,19,246,331,2,158,391,31,278,31,495,372,34,0,0,0,0,0,0,0,0,0,0,0,0,0,0,0,0],"split_type":[0,0,0,0,0,0,0,0,0,0,0,0,0,0,0,0,0,0,0,0,0,0,0,0,0,0,0,0,0,0,0],"sum_hessian":[4.5209512E5,3.578617E5,9.4233445E4,2.3898455E5,1.1887713E5,6.673334E4,2.7500105E4,2.0111144E5,3.787311E4,9.429181E4,2.4585312E4,5.9741887E4,6.9914565E3,1.8013396E4,9.486709E3,1.26824234E5,7.42872E4,1.8102213E4,1.9770898E4,9.102811E4,3.263709E3,4.922411E3,1.9662902E4,3.340264E4,2.6339246E4,3.9735596E2,6.5941006E3,2.236615E1,1.799103E4,2.016908E1,9.46654E3],"tree_param":{"num_deleted":"0","num_feature":"720","num_nodes":"31","size_leaf_vector":"1"}},{"base_weights":[-6.2814404E-5,2.852042E-1,-1.4987539E-1,-1.805413E-2,4.3577603E-1,-2.600276E-1,2.5285923E-1,3.922505E-1,-3.432814E-1,3.7883562E-1,7.478269E-1,-3.2081443E-1,3.7355068E-1,4.5033985E-1,7.426292E-2,2.3588339E-2,8.889153E-2,-5.8572996E-2,3.004772E-2,3.2416757E-2,6.777524E-2,6.2196743E-2,1.0019914E-1,-7.6641566E-3,-4.6075873E-2,2.070668E-2,8.899294E-2,-2.8394824E-3,5.8143076E-2,-8.595186E-3,4.0595926E-2],"categories":[],"categories_nodes":[],"categories_segments":[],"categories_sizes":[],"default_left":[0,0,0,0,0,0,0,0,0,0,0,0,0,0,0,0,0,0,0,0,0,0,0,0,0,0,0,0,0,0,0],"id":15,"left_children":[1,3,5,7,9,11,13,15,17,19,21,23,25,27,29,-1,-1,-1,-1,-1,-1,-1,-1,-1,-1,-1,-1,-1,-1,-1,-1],"loss_changes":[1.9157287E4,7.048078E3,1.3038611E4,6.833986E3,1.8323672E3,8.888555E3,2.226294E3,1.7584236E3,4.459078E3,1.4251797E3,5.0848535E2,7.1958027E3,1.7367661E3,1.8812915E3,1.7616003E3,0E0,0E0,0E0,0E0,0E0,0E0,0E0,0E0,0E0,0E0,0E0,0E0,0E0,0E0,0E0,0E0],"parents":[2147483647,0,0,1,1,2,2,3,3,4,4,5,5,6,6,7,7,8,8,9,9,10,10,11,11,12,12,13,13,14,14],"right_children":[2,4,6,8,10,12,14,16,18,20,22,24,26,28,30,-1,-1,-1,-1,-1,-1,-1,-1,-1,-1,-1,-1,-1,-1,-1,-1],"split_conditions":[3.9415298E0,0E0,7.892006E0,1.0628896E1,1E0,4.349275E0,-2.0806158E0,1E0,5.5179405E0,1.4266805E1,1.0068578E1,-5.169725E0,1.0068578E1,0E0,5.3606405E0,2.3588339E-2,8.889153E-2,-5.8572996E-2,3.004772E-2,3.2416757E-2,6.777524E-2,6.2196743E-2,1.0019914E-1,-7.6641566E-3,-4.6075873E-2,2.070668E-2,8.899294E-2,-2.8394824E-3,5.8143076E-2,-8.595186E-3,4.0595926E-2],"split_indices":[22,36,6,14,211,22,4,87,39,606,276,39,36,516,2,0,0,0,0,0,0,0,0,0,0,0,0,0,0,0,0],"split_type":[0,0,0,0,0,0,0,0,0,0,0,0,0,0,0,0,0,0,0,0,0,0,0,0,0,0,0,0,0,0,0],"sum_hessian":[4.482623E5,1.5435152E5,2.9391078E5,5.121105E4,1.0314046E5,2.3078814E5,6.312265E4,2.26437E4,2.8567354E4,8.722634E4,1.5914112E4,2.1058469E5,2.020345E4,2.9975785E4,3.3146867E4,1.7222834E4,5.4208647E3,2.075196E4,7.815392E3,7.374197E4,1.3484377E4,1.0645852E4,5.2682607E3,7.6722266E4,1.3386242E5,1.527885E4,4.9246006E3,6.4438984E3,2.3531887E4,2.2351477E4,1.079539E4],"tree_param":{"num_deleted":"0","num_feature":"720","num_nodes":"31","size_leaf_vector":"1"}},{"base_weights":[-2.3460821E-3,2.595282E-1,-1.4259067E-1,7.614844E-2,4.5623267E-1,-2.318745E-1,2.8285035E-1,-9.3966186E-2,5.948867E-1,7.5578713E-1,3.6452198E-1,-3.901107E-1,2.7601454E-2,1.4147249E-1,5.4118145E-1,2.846711E-2,-2.8453222E-2,9.458969E-2,4.9335014E-2,6.516157E-2,1.243179E-1,8.092692E-2,2.9593606E-2,5.709979E-3,-5.1835954E-2,-1.878919E-2,2.3033263E-2,9.549321E-3,1.1252462E-1,2.7156005E-2,7.1972206E-2],"categories":[],"categories_nodes":[],"categories_segments":[],"categories_sizes":[],"default_left":[0,0,0,0,0,0,0,0,0,0,0,0,0,0,0,0,0,0,0,0,0,0,0,0,0,0,0,0,0,0,0],"id":16,"left_children":[1,3,5,7,9,11,13,15,17,19,21,23,25,27,29,-1,-1,-1,-1,-1,-1,-1,-1,-1,-1,-1,-1,-1,-1,-1,-1],"loss_changes":[1.6331949E4,5.5944023E3,1.1000494E4,7.0831265E3,2.0554102E3,9.828022E3,1.8345894E3,4.361507E3,7.060005E2,8.8964844E2,1.7473071E3,8.528053E3,3.9614583E3,1.4685052E3,8.5510645E2,0E0,0E0,0E0,0E0,0E0,0E0,0E0,0E0,0E0,0E0,0E0,0E0,0E0,0E0,0E0,0E0],"parents":[2147483647,0,0,1,1,2,2,3,3,4,4,5,5,6,6,7,7,8,8,9,9,10,10,11,11,12,12,13,13,14,14],"right_children":[2,4,6,8,10,12,14,16,18,20,22,24,26,28,30,-1,-1,-1,-1,-1,-1,-1,-1,-1,-1,-1,-1,-1,-1,-1,-1],"split_conditions":[1.0628896E1,2.0501142E0,1.1208273E1,6.009981E0,-7.7899017E0,3.335767E0,6.9112678E0,9.965039E-1,-7.7899017E0,1.0579375E1,-5.8592515E0,-4.1881046E0,3.65067E0,1.753768E1,8.876757E0,2.846711E-2,-2.8453222E-2,9.458969E-2,4.9335014E-2,6.516157E-2,1.243179E-1,8.092692E-2,2.9593606E-2,5.709979E-3,-5.1835954E-2,-1.878919E-2,2.3033263E-2,9.549321E-3,1.1252462E-1,2.7156005E-2,7.1972206E-2],"split_indices":[14,151,0,482,124,38,126,617,124,24,39,38,15,25,35,0,0,0,0,0,0,0,0,0,0,0,0,0,0,0,0],"split_type":[0,0,0,0,0,0,0,0,0,0,0,0,0,0,0,0,0,0,0,0,0,0,0,0,0,0,0,0,0,0,0],"sum_hessian":[4.4468972E5,1.5509147E5,2.8959825E5,8.026499E4,7.482648E4,2.3936511E5,5.023314E4,6.044389E4,1.9821104E4,1.7537271E4,5.7289207E4,1.4868938E5,9.067574E4,3.2466576E4,1.7766564E4,2.0236105E4,4.0207785E4,4.445337E3,1.5375767E4,1.4450968E4,3.086304E3,7.6529116E3,4.9636297E4,3.3137555E4,1.1555182E5,4.3954414E4,4.672133E4,3.1017965E4,1.4486101E3,7.0789194E3,1.0687645E4],"tree_param":{"num_deleted":"0","num_feature":"720","num_nodes":"31","size_leaf_vector":"1"}},{"base_weights":[-2.2275702E-3,-8.244393E-2,4.3512422E-1,-1.2711033E-1,6.451052E-1,3.9493382E-1,7.5861096E-1,-1.9116695E-1,3.5708925E-1,3.083872E-1,8.980639E-1,5.171274E-1,2.7605566E-1,5.86184E-1,8.830299E-1,-3.7570097E-2,-6.11621E-4,-1.3190088E-3,4.9022734E-2,-2.9350793E-2,7.5246036E-2,9.377589E-2,-1.12148285E-1,3.2212995E-2,5.8360912E-2,1.218576E-2,4.933584E-2,-1.7724593E-1,6.139743E-2,3.0070627E-2,9.173944E-2],"categories":[],"categories_nodes":[],"categories_segments":[],"categories_sizes":[],"default_left":[0,0,0,0,0,0,0,0,0,0,0,0,0,0,0,0,0,0,0,0,0,0,0,0,0,0,0,0,0,0,0],"id":17,"left_children":[1,3,5,7,9,11,13,15,17,19,21,23,25,27,29,-1,-1,-1,-1,-1,-1,-1,-1,-1,-1,-1,-1,-1,-1,-1,-1],"loss_changes":[1.5521096E4,1.2148932E4,8.911631E2,1.092466E4,1.8415703E3,8.858496E2,1.6202148E2,1.0622473E4,2.0287754E3,2.4800396E3,9.9088574E2,3.8970898E2,1.0359299E3,2.0943408E2,8.775244E1,0E0,0E0,0E0,0E0,0E0,0E0,0E0,0E0,0E0,0E0,0E0,0E0,0E0,0E0,0E0,0E0],"parents":[2147483647,0,0,1,1,2,2,3,3,4,4,5,5,6,6,7,7,8,8,9,9,10,10,11,11,12,12,13,13,14,14],"right_children":[2,4,6,8,10,12,14,16,18,20,22,24,26,28,30,-1,-1,-1,-1,-1,-1,-1,-1,-1,-1,-1,-1,-1,-1,-1,-1],"split_conditions":[8.6208105E0,1E0,1E0,1E0,2.8895614E0,-8.567604E-1,2.5503638E0,1.6797456E0,0E0,-3.4459078E0,1.4279492E1,0E0,1.6065929E0,-3.9176445E1,-1.1016629E1,-3.7570097E-2,-6.11621E-4,-1.3190088E-3,4.9022734E-2,-2.9350793E-2,7.5246036E-2,9.377589E-2,-1.12148285E-1,3.2212995E-2,5.8360912E-2,1.218576E-2,4.933584E-2,-1.7724593E-1,6.139743E-2,3.0070627E-2,9.173944E-2],"split_indices":[639,87,211,210,38,124,0,19,36,39,633,36,128,38,486,0,0,0,0,0,0,0,0,0,0,0,0,0,0,0,0],"split_type":[0,0,0,0,0,0,0,0,0,0,0,0,0,0,0,0,0,0,0,0,0,0,0,0,0,0,0,0,0,0,0],"sum_hessian":[4.4241166E5,3.7384428E5,6.85674E4,3.522212E5,2.162308E4,6.0991906E4,7.575489E3,3.1106925E5,4.115194E4,9.276791E3,1.2346289E4,3.007489E4,3.0917016E4,3.1775579E3,4.397931E3,1.5575158E5,1.5531767E5,1.0883634E4,3.0268309E4,3.9386707E3,5.3381206E3,1.210882E4,2.3746829E2,7.6480986E3,2.2426793E4,1.8085268E4,1.2831748E4,3.6271862E1,3.141286E3,2.4561449E2,4.1523164E3],"tree_param":{"num_deleted":"0","num_feature":"720","num_nodes":"31","size_leaf_vector":"1"}},{"base_weights":[-6.8637315E-4,2.4894135E-1,-1.3209549E-1,-1.4069716E-2,3.7789267E-1,-2.281204E-1,2.3294942E-1,3.461198E-1,-2.5842816E-1,3.2732853E-1,7.39866E-1,1.22907534E-1,-3.1667072E-1,1.605782E-1,7.0495456E-1,-6.8524085E-2,3.977753E-2,-4.8715245E-2,2.4716726E-2,-3.146441E-2,3.5249382E-2,2.9742157E-2,9.152432E-2,-9.24455E-4,7.3012404E-2,-4.596524E-2,-8.1115775E-3,2.5512222E-2,-2.3375614E-2,8.4764354E-2,3.439848E-2],"categories":[],"categories_nodes":[],"categories_segments":[],"categories_sizes":[],"default_left":[0,0,0,0,0,0,0,0,0,0,0,0,0,0,0,0,0,0,0,0,0,0,0,0,0,0,0,0,0,0,0],"id":18,"left_children":[1,3,5,7,9,11,13,15,17,19,21,23,25,27,29,-1,-1,-1,-1,-1,-1,-1,-1,-1,-1,-1,-1,-1,-1,-1,-1],"loss_changes":[1.4422392E4,5.142541E3,1.0096648E4,4.390708E3,1.86196E3,7.088586E3,2.0490579E3,1.0745103E3,3.4372136E3,1.4423857E3,9.673159E2,3.6864177E3,6.1334023E3,1.9392589E3,4.1045825E2,0E0,0E0,0E0,0E0,0E0,0E0,0E0,0E0,0E0,0E0,0E0,0E0,0E0,0E0,0E0,0E0],"parents":[2147483647,0,0,1,1,2,2,3,3,4,4,5,5,6,6,7,7,8,8,9,9,10,10,11,11,12,12,13,13,14,14],"right_children":[2,4,6,8,10,12,14,16,18,20,22,24,26,28,30,-1,-1,-1,-1,-1,-1,-1,-1,-1,-1,-1,-1,-1,-1,-1,-1],"split_conditions":[3.9415298E0,0E0,7.892006E0,7.01157E0,3.9415298E0,-8.199892E0,1.305032E-1,-1.6130238E1,5.173177E0,-2.3809575E-1,0E0,9.380753E0,3.3653498E0,9.931422E0,9.683081E-1,-6.8524085E-2,3.977753E-2,-4.8715245E-2,2.4716726E-2,-3.146441E-2,3.5249382E-2,2.9742157E-2,9.152432E-2,-9.24455E-4,7.3012404E-2,-4.596524E-2,-8.1115775E-3,2.5512222E-2,-2.3375614E-2,8.4764354E-2,3.439848E-2],"split_indices":[22,36,126,26,622,4,10,16,159,10,610,19,38,637,123,0,0,0,0,0,0,0,0,0,0,0,0,0,0,0,0],"split_type":[0,0,0,0,0,0,0,0,0,0,0,0,0,0,0,0,0,0,0,0,0,0,0,0,0,0,0,0,0,0,0],"sum_hessian":[4.3966003E5,1.5162633E5,2.880337E5,4.9883695E4,1.0174263E5,2.2804653E5,5.9987164E4,2.0162834E4,2.972086E4,8.927385E4,1.2468783E4,4.593849E4,1.8210803E5,5.201343E4,7.973731E3,9.6110095E2,1.9201732E4,2.0463498E4,9.257363E3,3.3670913E3,8.590676E4,3.5402004E3,8.928583E3,3.7728418E4,8.210071E3,1.133212E5,6.8786836E4,4.195486E4,1.0058573E4,5.7137686E3,2.2599622E3],"tree_param":{"num_deleted":"0","num_feature":"720","num_nodes":"31","size_leaf_vector":"1"}},{"base_weights":[1.1366596E-3,-8.732298E-2,3.4815395E-1,-1.9022174E-1,2.3089026E-1,2.4996588E-1,6.7161924E-1,-2.323832E-1,5.159391E-1,8.1598654E-2,6.281175E-1,-5.4356426E-2,3.70798E-1,6.899585E-1,-1.3763778E0,-4.4448085E-2,-8.468976E-3,1.4195663E-2,7.264977E-2,3.8509343E-2,-8.902221E-3,1.3080423E-1,5.3538032E-2,-3.463623E-2,4.2611085E-2,5.2070756E-2,2.1154905E-2,-9.336439E-2,7.063528E-2,1.7106168E-1,-2.0237136E-1],"categories":[],"categories_nodes":[],"categories_segments":[],"categories_sizes":[],"default_left":[0,0,0,0,0,0,0,0,0,0,0,0,0,0,0,0,0,0,0,0,0,0,0,0,0,0,0,0,0,0,0],"id":19,"left_children":[1,3,5,7,9,11,13,15,17,19,21,23,25,27,29,-1,-1,-1,-1,-1,-1,-1,-1,-1,-1,-1,-1,-1,-1,-1,-1],"loss_changes":[1.3427412E4,1.1413322E4,2.8218682E3,7.842047E3,5.050878E3,2.50656E3,7.780498E2,7.786004E3,1.1684915E3,3.2057288E3,1.4663301E3,2.71827E3,1.1646924E3,5.465205E2,3.710834E2,0E0,0E0,0E0,0E0,0E0,0E0,0E0,0E0,0E0,0E0,0E0,0E0,0E0,0E0,0E0,0E0],"parents":[2147483647,0,0,1,1,2,2,3,3,4,4,5,5,6,6,7,7,8,8,9,9,10,10,11,11,12,12,13,13,14,14],"right_children":[2,4,6,8,10,12,14,16,18,20,22,24,26,28,30,-1,-1,-1,-1,-1,-1,-1,-1,-1,-1,-1,-1,-1,-1,-1,-1],"split_conditions":[8.217799E0,5.3702497E0,1.8347654E1,1E0,5.8555074E0,0E0,1.2476988E1,0E0,0E0,7.01157E0,-5.8592515E0,3.44936E0,-8.567604E-1,-1.7124933E1,-6.499343E0,-4.4448085E-2,-8.468976E-3,1.4195663E-2,7.264977E-2,3.8509343E-2,-8.902221E-3,1.3080423E-1,5.3538032E-2,-3.463623E-2,4.2611085E-2,5.2070756E-2,2.1154905E-2,-9.336439E-2,7.063528E-2,1.7106168E-1,-2.0237136E-1],"split_indices":[2,31,2,87,19,516,262,606,36,26,39,39,4,133,140,0,0,0,0,0,0,0,0,0,0,0,0,0,0,0,0],"split_type":[0,0,0,0,0,0,0,0,0,0,0,0,0,0,0,0,0,0,0,0,0,0,0,0,0,0,0,0,0,0,0],"sum_hessian":[4.374154E5,3.485626E5,8.885282E4,2.633916E5,8.517101E4,6.816352E4,2.0689297E4,2.4855239E5,1.4839193E4,6.1905863E4,2.326514E4,1.9372748E4,4.8790773E4,2.0506332E4,1.8296518E2,1.0202939E5,1.46523E5,5.345855E3,9.493338E3,2.2277725E4,3.962814E4,2.7907786E3,2.0474361E4,1.2049746E4,7.3230015E3,2.5131182E4,2.3659592E4,2.0443358E2,2.0301898E4,3.1431767E1,1.5153342E2],"tree_param":{"num_deleted":"0","num_feature":"720","num_nodes":"31","size_leaf_vector":"1"}},{"base_weights":[4.106411E-3,-8.249781E-2,3.1410196E-1,1.0983413E-1,-2.2881286E-1,2.655252E-1,7.302052E-1,5.2867913E-1,4.242286E-3,-3.0573726E-1,3.883473E-1,2.0509598E-1,5.702613E-1,1.3254746E0,6.8894416E-1,1.3260635E-2,7.393776E-2,-3.728299E-2,1.3126187E-2,-3.7894342E-2,3.625719E-2,9.802158E-2,3.265817E-2,1.2368808E-3,3.2493107E-2,-2.519923E-1,5.7691496E-2,1.834713E-1,1.020202E-1,8.818017E-2,5.7019472E-2],"categories":[],"categories_nodes":[],"categories_segments":[],"categories_sizes":[],"default_left":[0,0,0,0,0,0,0,0,0,0,0,0,0,0,0,0,0,0,0,0,0,0,0,0,0,0,0,0,0,0,0],"id":20,"left_children":[1,3,5,7,9,11,13,15,17,19,21,23,25,27,29,-1,-1,-1,-1,-1,-1,-1,-1,-1,-1,-1,-1,-1,-1,-1,-1],"loss_changes":[1.1686154E4,9.574623E3,1.9210977E3,6.501408E3,9.173872E3,1.5673188E3,2.4313037E2,2.4699043E3,5.6232417E3,8.406281E3,7.826006E2,1.6405461E3,2.9105713E2,9.808508E1,2.1234668E2,0E0,0E0,0E0,0E0,0E0,0E0,0E0,0E0,0E0,0E0,0E0,0E0,0E0,0E0,0E0,0E0],"parents":[2147483647,0,0,1,1,2,2,3,3,4,4,5,5,6,6,7,7,8,8,9,9,10,10,11,11,12,12,13,13,14,14],"right_children":[2,4,6,8,10,12,14,16,18,20,22,24,26,28,30,-1,-1,-1,-1,-1,-1,-1,-1,-1,-1,-1,-1,-1,-1,-1,-1],"split_conditions":[4.8284135E0,-4.1354346E0,1E0,1.0481029E1,1E0,1.2503488E1,-1.3971455E1,-4.2496094E-1,0E0,1E0,1E0,1.2413208E1,-2.5997162E1,8.965575E0,1.429233E-1,1.3260635E-2,7.393776E-2,-3.728299E-2,1.3126187E-2,-3.7894342E-2,3.625719E-2,9.802158E-2,3.265817E-2,1.2368808E-3,3.2493107E-2,-2.519923E-1,5.7691496E-2,1.834713E-1,1.020202E-1,8.818017E-2,5.7019472E-2],"split_indices":[639,39,91,14,90,2,375,135,36,210,83,39,394,39,131,0,0,0,0,0,0,0,0,0,0,0,0,0,0,0,0],"split_type":[0,0,0,0,0,0,0,0,0,0,0,0,0,0,0,0,0,0,0,0,0,0,0,0,0,0,0,0,0,0,0],"sum_hessian":[4.352864E5,3.4023488E5,9.505153E4,1.4700122E5,1.9323367E5,8.5116484E4,9.93504E3,2.9596902E4,1.1740431E5,1.718183E5,2.1415363E4,7.1032414E4,1.408407E4,6.419891E2,9.293051E3,1.0277948E4,1.9318953E4,2.9582713E4,8.78216E4,1.5485592E5,1.6962379E4,2.0222549E3,1.939311E4,2.7233957E4,4.379846E4,2.9448511E1,1.4054621E4,2.38735E2,4.032541E2,3.5390146E3,5.754036E3],"tree_param":{"num_deleted":"0","num_feature":"720","num_nodes":"31","size_leaf_vector":"1"}},{"base_weights":[-2.9321203E-3,-1.23156175E-1,2.058101E-1,9.449047E-2,-2.547819E-1,1.19267695E-1,4.424981E-1,3.722707E-1,-3.857727E-2,-4.4962454E-1,-2.5273668E-2,3.487837E-1,-1.7413082E-2,8.311511E-1,3.9416042E-1,5.5458903E-2,1.4809497E-2,-3.9612647E-2,1.2969549E-2,-2.2163017E-2,-6.7515634E-2,-3.293525E-2,1.722672E-2,1.1139112E-1,2.8362526E-2,-1.413318E-2,3.5467885E-2,5.1471468E-2,1.09884106E-1,4.0256854E-2,-1.7540935E-1],"categories":[],"categories_nodes":[],"categories_segments":[],"categories_sizes":[],"default_left":[0,0,0,0,0,0,0,0,0,0,0,0,0,0,0,0,0,0,0,0,0,0,0,0,0,0,0,0,0,0,0],"id":21,"left_children":[1,3,5,7,9,11,13,15,17,19,21,23,25,27,29,-1,-1,-1,-1,-1,-1,-1,-1,-1,-1,-1,-1,-1,-1,-1,-1],"loss_changes":[1.0811982E4,7.8317104E3,3.2250894E3,3.808184E3,7.6178525E3,3.6168794E3,7.9163477E2,1.363728E3,4.1910513E3,4.737424E3,4.6985537E3,2.1450977E3,3.3320442E3,3.943506E2,6.779619E2,0E0,0E0,0E0,0E0,0E0,0E0,0E0,0E0,0E0,0E0,0E0,0E0,0E0,0E0,0E0,0E0],"parents":[2147483647,0,0,1,1,2,2,3,3,4,4,5,5,6,6,7,7,8,8,9,9,10,10,11,11,12,12,13,13,14,14],"right_children":[2,4,6,8,10,12,14,16,18,20,22,24,26,28,30,-1,-1,-1,-1,-1,-1,-1,-1,-1,-1,-1,-1,-1,-1,-1,-1],"split_conditions":[4.8591394E0,-4.5283265E0,4.138887E0,1.0628896E1,3.291393E0,-5.169725E0,-2.2913485E0,2.640428E0,0E0,1.7130319E0,0E0,-9.071603E0,8.0767565E0,-3.9352746E0,2.8977882E1,5.5458903E-2,1.4809497E-2,-3.9612647E-2,1.2969549E-2,-2.2163017E-2,-6.7515634E-2,-3.293525E-2,1.722672E-2,1.1139112E-1,2.8362526E-2,-1.413318E-2,3.5467885E-2,5.1471468E-2,1.09884106E-1,4.0256854E-2,-1.7540935E-1],"split_indices":[0,4,639,14,38,159,17,377,36,38,602,33,31,617,127,0,0,0,0,0,0,0,0,0,0,0,0,0,0,0,0],"split_type":[0,0,0,0,0,0,0,0,0,0,0,0,0,0,0,0,0,0,0,0,0,0,0,0,0,0,0,0,0,0,0],"sum_hessian":[4.3082575E5,2.7337638E5,1.5744938E5,1.0302389E5,1.7035248E5,1.1529464E5,4.2154734E4,3.336737E4,6.9656516E4,9.213384E4,7.821864E4,4.303246E4,7.226218E4,4.6611494E3,3.7493586E4,1.8400822E4,1.4966549E4,2.2290941E4,4.736558E4,4.5817773E4,4.631607E4,3.080271E4,4.741593E4,3.3758013E3,3.9656656E4,5.420933E4,1.805285E4,2.1374229E3,2.5237263E3,3.734822E4,1.4536565E2],"tree_param":{"num_deleted":"0","num_feature":"720","num_nodes":"31","size_leaf_vector":"1"}},{"base_weights":[-7.586928E-4,-6.0956102E-2,3.952959E-1,1.2486277E-1,-2.3530649E-1,5.027357E-1,1.7546043E-1,-2.205131E-1,2.8437838E-1,-5.020752E-1,-6.1625425E-2,7.7750546E-1,3.5998103E-1,-1.4473109E-1,4.0939882E-1,2.7399091E-2,-4.3795284E-2,-4.5180446E-3,3.604027E-2,-5.5617172E-2,4.673451E-2,1.05735876E-1,-9.234088E-3,1.1265029E-1,6.1891045E-2,6.027778E-2,1.9234749E-2,-5.6106698E-2,2.1941751E-2,6.749562E-2,1.8216394E-2],"categories":[],"categories_nodes":[],"categories_segments":[],"categories_sizes":[],"default_left":[0,0,0,0,0,0,0,0,0,0,0,0,0,0,0,0,0,0,0,0,0,0,0,0,0,0,0,0,0,0,0],"id":22,"left_children":[1,3,5,7,9,11,13,15,17,19,21,23,25,27,29,-1,-1,-1,-1,-1,-1,-1,-1,-1,-1,-1,-1,-1,-1,-1,-1],"loss_changes":[1.0224968E4,1.2061273E4,1.3364004E3,9.928763E3,8.899163E3,1.4905908E3,1.3916173E3,6.1224297E3,3.0887324E3,3.9721777E3,3.998503E3,7.1853906E2,1.01801514E3,1.1892916E3,6.4766406E2,0E0,0E0,0E0,0E0,0E0,0E0,0E0,0E0,0E0,0E0,0E0,0E0,0E0,0E0,0E0,0E0],"parents":[2147483647,0,0,1,1,2,2,3,3,4,4,5,5,6,6,7,7,8,8,9,9,10,10,11,11,12,12,13,13,14,14],"right_children":[2,4,6,8,10,12,14,16,18,20,22,24,26,28,30,-1,-1,-1,-1,-1,-1,-1,-1,-1,-1,-1,-1,-1,-1,-1,-1],"split_conditions":[4.0601056E-2,-4.350048E-3,2.9264286E-1,0E0,0E0,3.885716E0,5.3646845E-1,3.2313945E0,-1.751642E-1,1.1854147E1,-3.233236E1,4.640162E-3,2.2620581E-2,8.876757E0,4.9591266E-2,2.7399091E-2,-4.3795284E-2,-4.5180446E-3,3.604027E-2,-5.5617172E-2,4.673451E-2,1.05735876E-1,-9.234088E-3,1.1265029E-1,6.1891045E-2,6.027778E-2,1.9234749E-2,-5.6106698E-2,2.1941751E-2,6.749562E-2,1.8216394E-2],"split_indices":[10,10,18,36,600,16,486,16,10,2,38,610,610,635,490,0,0,0,0,0,0,0,0,0,0,0,0,0,0,0,0],"split_type":[0,0,0,0,0,0,0,0,0,0,0,0,0,0,0,0,0,0,0,0,0,0,0,0,0,0,0,0,0,0,0],"sum_hessian":[4.2887138E5,3.7228728E5,5.6584105E4,1.8021661E5,1.9207067E5,3.800749E4,1.8576617E4,5.6937582E4,1.2327902E5,7.5737836E4,1.16332836E5,1.2993516E4,2.5013973E4,7.8426973E3,1.073392E4,1.7389625E4,3.9547957E4,2.3108043E4,1.00170984E5,7.173523E4,4.0026138E3,3.1070625E3,1.1322577E5,4.0578604E3,8.935655E3,1.0215489E4,1.4798484E4,3.6588943E3,4.1838027E3,4.948684E3,5.785236E3],"tree_param":{"num_deleted":"0","num_feature":"720","num_nodes":"31","size_leaf_vector":"1"}},{"base_weights":[-6.815338E-4,-5.708895E-2,3.7994215E-1,1.4707665E-1,-1.6536537E-1,1.3824247E-1,4.686031E-1,1.6437322E-2,4.33987E-1,-3.8473186E-1,-1.4952672E-2,3.0474287E-1,-3.0862647E-1,9.3959266E-1,4.219942E-1,-4.830967E-3,6.598115E-2,7.1495675E-2,2.8278554E-2,-4.6305552E-2,3.15239E-2,1.3545585E-2,-2.502419E-2,4.9579334E-2,-1.3635484E-4,-1.6416365E-1,-1.685651E-2,-9.303379E-4,1.0837322E-1,-2.0560984E-1,4.3089718E-2],"categories":[],"categories_nodes":[],"categories_segments":[],"categories_sizes":[],"default_left":[0,0,0,0,0,0,0,0,0,0,0,0,0,0,0,0,0,0,0,0,0,0,0,0,0,0,0,0,0,0,0],"id":23,"left_children":[1,3,5,7,9,11,13,15,17,19,21,23,25,27,29,-1,-1,-1,-1,-1,-1,-1,-1,-1,-1,-1,-1,-1,-1,-1,-1],"loss_changes":[9.148327E3,8.203722E3,1.1784688E3,4.8203535E3,8.001319E3,1.0983784E3,8.8288086E2,3.6812012E3,1.7091836E3,5.407963E3,5.0911445E3,6.28954E2,7.479241E2,4.954563E2,8.086953E2,0E0,0E0,0E0,0E0,0E0,0E0,0E0,0E0,0E0,0E0,0E0,0E0,0E0,0E0,0E0,0E0],"parents":[2147483647,0,0,1,1,2,2,3,3,4,4,5,5,6,6,7,7,8,8,9,9,10,10,11,11,12,12,13,13,14,14],"right_children":[2,4,6,8,10,12,14,16,18,20,22,24,26,28,30,-1,-1,-1,-1,-1,-1,-1,-1,-1,-1,-1,-1,-1,-1,-1,-1],"split_conditions":[1.1074958E1,1.0628896E1,-5.0925245E0,5.3702497E0,2.4532766E0,3.9069788E0,-9.065885E0,1E0,1E0,1.0344628E1,1.0741172E-1,-1.502408E0,-1.0089225E1,-3.211832E0,-1.8451916E1,-4.830967E-3,6.598115E-2,7.1495675E-2,2.8278554E-2,-4.6305552E-2,3.15239E-2,1.3545585E-2,-2.502419E-2,4.9579334E-2,-1.3635484E-4,-1.6416365E-1,-1.685651E-2,-9.303379E-4,1.0837322E-1,-2.0560984E-1,4.3089718E-2],"split_indices":[242,14,375,31,15,29,31,91,685,39,3,505,23,494,609,0,0,0,0,0,0,0,0,0,0,0,0,0,0,0,0],"split_type":[0,0,0,0,0,0,0,0,0,0,0,0,0,0,0,0,0,0,0,0,0,0,0,0,0,0,0,0,0,0,0],"sum_hessian":[4.260962E5,3.7110088E5,5.4995312E4,1.2860446E5,2.4249642E5,1.4760122E4,4.0235188E4,8.836853E4,4.023592E4,9.863808E4,1.4385834E5,1.07536875E4,4.0064343E3,3.6213882E3,3.66138E4,8.028941E4,8.079129E3,1.4075827E4,2.6160096E4,8.871194E4,9.92614E3,8.775892E4,5.609942E4,6.6208135E3,4.132874E3,3.7991714E2,3.6265173E3,4.7767874E2,3.1437095E3,1.3024721E2,3.6483555E4],"tree_param":{"num_deleted":"0","num_feature":"720","num_nodes":"31","size_leaf_vector":"1"}},{"base_weights":[-6.3600054E-4,-5.5993315E-2,3.8905135E-1,-1.0921923E-1,3.7994662E-1,9.0417624E-1,3.3925936E-1,1.6488485E-1,-1.9002695E-1,-3.303054E-1,4.3220958E-1,1.0661898E0,1.8733811E-1,-9.3327925E-2,4.0100592E-1,-1.1668963E-2,3.96259E-2,-3.710129E-2,-4.562341E-3,2.1074912E-2,-7.993338E-2,5.525431E-2,2.6510356E-2,1.2181081E-1,5.8628447E-2,5.6162316E-2,-4.5088816E-2,-5.382002E-2,2.608705E-2,1.043992E-1,3.73978E-2],"categories":[],"categories_nodes":[],"categories_segments":[],"categories_sizes":[],"default_left":[0,0,0,0,0,0,0,0,0,0,0,0,0,0,0,0,0,0,0,0,0,0,0,0,0,0,0,0,0,0,0],"id":24,"left_children":[1,3,5,7,9,11,13,15,17,19,21,23,25,27,29,-1,-1,-1,-1,-1,-1,-1,-1,-1,-1,-1,-1,-1,-1,-1,-1],"loss_changes":[9.147871E3,8.615756E3,1.3526138E3,7.329651E3,1.4998872E3,5.396731E2,1.2848188E3,4.9086357E3,6.679292E3,7.0305554E2,7.5661475E2,2.7570312E2,2.0524968E2,9.469785E2,7.3110645E2,0E0,0E0,0E0,0E0,0E0,0E0,0E0,0E0,0E0,0E0,0E0,0E0,0E0,0E0,0E0,0E0],"parents":[2147483647,0,0,1,1,2,2,3,3,4,4,5,5,6,6,7,7,8,8,9,9,10,10,11,11,12,12,13,13,14,14],"right_children":[2,4,6,8,10,12,14,16,18,20,22,24,26,28,30,-1,-1,-1,-1,-1,-1,-1,-1,-1,-1,-1,-1,-1,-1,-1,-1],"split_conditions":[1E0,1E0,1E0,-7.5879645E0,1E0,1E0,1E0,1.6797456E0,0E0,-8.617359E0,2.9264286E-1,4.286802E0,1E0,0E0,-1.7756227E1,-1.1668963E-2,3.96259E-2,-3.710129E-2,-4.562341E-3,2.1074912E-2,-7.993338E-2,5.525431E-2,2.6510356E-2,1.2181081E-1,5.8628447E-2,5.6162316E-2,-4.5088816E-2,-5.382002E-2,2.608705E-2,1.043992E-1,3.73978E-2],"split_indices":[330,90,323,4,199,443,679,19,0,159,138,255,716,36,2,0,0,0,0,0,0,0,0,0,0,0,0,0,0,0,0],"split_type":[0,0,0,0,0,0,0,0,0,0,0,0,0,0,0,0,0,0,0,0,0,0,0,0,0,0,0,0,0,0,0],"sum_hessian":[4.2405944E5,3.7131312E5,5.2746297E4,3.3091138E5,4.0401746E4,4.6475654E3,4.809873E4,7.534298E4,2.555684E5,2.7687808E3,3.7632965E4,3.7904038E3,8.5716187E2,6.0078833E3,4.2090848E4,3.398495E4,4.1358027E4,1.1341718E5,1.4215123E5,1.2859292E3,1.4828516E3,2.1876984E4,1.575598E4,2.8778552E3,9.1254865E2,5.4037897E2,3.167829E2,2.6628416E3,3.3450415E3,1.6964001E3,4.0394445E4],"tree_param":{"num_deleted":"0","num_feature":"720","num_nodes":"31","size_leaf_vector":"1"}},{"base_weights":[-3.4832603E-3,-7.854639E-2,2.662361E-1,-1.1851148E-1,4.2949507E-1,8.639056E-2,3.8855904E-1,-1.5010539E-1,5.7365716E-1,2.0754229E-1,6.2403035E-1,-1.9473612E-1,1.8355139E-1,3.3337554E-1,7.241918E-1,-2.290806E-2,1.07191345E-2,1.00171946E-1,4.750346E-2,-3.5280697E-2,4.6004713E-2,1.0097654E-1,4.4474248E-2,6.3964166E-2,-2.8914511E-2,3.54416E-2,-6.7565064E-3,5.080195E-2,2.2023592E-2,-9.828622E-2,7.863671E-2],"categories":[],"categories_nodes":[],"categories_segments":[],"categories_sizes":[],"default_left":[0,0,0,0,0,0,0,0,0,0,0,0,0,0,0,0,0,0,0,0,0,0,0,0,0,0,0,0,0,0,0],"id":25,"left_children":[1,3,5,7,9,11,13,15,17,19,21,23,25,27,29,-1,-1,-1,-1,-1,-1,-1,-1,-1,-1,-1,-1,-1,-1,-1,-1],"loss_changes":[8.538321E3,6.6985967E3,2.0198325E3,6.6886084E3,1.0387334E3,1.0153073E3,1.01188965E3,5.943729E3,5.6317725E2,1.5904719E3,8.862588E2,7.522515E2,1.1852585E3,9.2723193E2,8.196465E2,0E0,0E0,0E0,0E0,0E0,0E0,0E0,0E0,0E0,0E0,0E0,0E0,0E0,0E0,0E0,0E0],"parents":[2147483647,0,0,1,1,2,2,3,3,4,4,5,5,6,6,7,7,8,8,9,9,10,10,11,11,12,12,13,13,14,14],"right_children":[2,4,6,8,10,12,14,16,18,20,22,24,26,28,30,-1,-1,-1,-1,-1,-1,-1,-1,-1,-1,-1,-1,-1,-1,-1,-1],"split_conditions":[6.9112678E0,1E0,1.0343852E1,1E0,3.0226831E0,0E0,2.0242494E-1,5.3702497E0,1E0,-3.7906713E0,1E0,-1.5982684E1,1.0741172E-1,7.01157E0,-3.5382237E0,-2.290806E-2,1.07191345E-2,1.00171946E-1,4.750346E-2,-3.5280697E-2,4.6004713E-2,1.0097654E-1,4.4474248E-2,6.3964166E-2,-2.8914511E-2,3.54416E-2,-6.7565064E-3,5.080195E-2,2.2023592E-2,-9.828622E-2,7.863671E-2],"split_indices":[366,87,126,222,38,636,10,31,83,39,687,361,123,146,613,0,0,0,0,0,0,0,0,0,0,0,0,0,0,0,0],"split_type":[0,0,0,0,0,0,0,0,0,0,0,0,0,0,0,0,0,0,0,0,0,0,0,0,0,0,0,0,0,0,0],"sum_hessian":[4.2172716E5,3.2991284E5,9.181432E4,3.0585362E5,2.4059213E4,3.716869E4,5.4645633E4,2.9250316E5,1.3350466E4,1.1238661E4,1.2820552E4,9.546292E3,2.7622396E4,4.6931348E4,7.714285E3,2.2380734E5,6.869581E4,2.4981804E3,1.0852285E4,3.491052E3,7.7476094E3,4.0666304E3,8.753922E3,9.697712E2,8.576521E3,1.643755E4,1.1184847E4,1.8449283E4,2.8482064E4,2.7057962E2,7.4437056E3],"tree_param":{"num_deleted":"0","num_feature":"720","num_nodes":"31","size_leaf_vector":"1"}},{"base_weights":[3.4854675E-3,-5.8001053E-2,2.775301E-1,-1.1786543E-1,2.2445603E-1,2.440966E-1,8.3327013E-1,-1.8051302E-1,2.3813885E-1,7.7143174E-1,9.540782E-2,8.1081653E-4,3.17974E-1,8.9171267E-1,6.1754428E-2,-3.430884E-2,-3.6098834E-3,6.984997E-2,1.8594304E-2,8.223721E-2,-4.7771838E-2,3.0058006E-2,-2.4792904E-2,4.0196616E-2,-2.646855E-2,4.3324582E-2,1.36498585E-2,1.02535285E-1,5.287946E-2,-9.026457E-2,5.8258403E-2],"categories":[],"categories_nodes":[],"categories_segments":[],"categories_sizes":[],"default_left":[0,0,0,0,0,0,0,0,0,0,0,0,0,0,0,0,0,0,0,0,0,0,0,0,0,0,0,0,0,0,0],"id":26,"left_children":[1,3,5,7,9,11,13,15,17,19,21,23,25,27,29,-1,-1,-1,-1,-1,-1,-1,-1,-1,-1,-1,-1,-1,-1,-1,-1],"loss_changes":[7.0926704E3,5.8132637E3,1.4330034E3,6.3267256E3,4.243717E3,1.3077383E3,1.9729004E2,5.663478E3,1.01988477E3,7.306831E2,3.4268772E3,1.8052765E3,1.1674692E3,1.9678198E2,1.5586833E2,0E0,0E0,0E0,0E0,0E0,0E0,0E0,0E0,0E0,0E0,0E0,0E0,0E0,0E0,0E0,0E0],"parents":[2147483647,0,0,1,1,2,2,3,3,4,4,5,5,6,6,7,7,8,8,9,9,10,10,11,11,12,12,13,13,14,14],"right_children":[2,4,6,8,10,12,14,16,18,20,22,24,26,28,30,-1,-1,-1,-1,-1,-1,-1,-1,-1,-1,-1,-1,-1,-1,-1,-1],"split_conditions":[1.0343852E1,6.6318536E0,1E0,8.185811E0,5.405696E0,0E0,3.0848134E0,0E0,-6.893542E0,1.8724924E1,0E0,7.01157E0,9.683081E-1,2.8434465E0,9.5896435E0,-3.430884E-2,-3.6098834E-3,6.984997E-2,1.8594304E-2,8.223721E-2,-4.7771838E-2,3.0058006E-2,-2.4792904E-2,4.0196616E-2,-2.646855E-2,4.3324582E-2,1.36498585E-2,1.02535285E-1,5.287946E-2,-9.026457E-2,5.8258403E-2],"split_indices":[366,19,342,11,619,636,512,0,519,244,244,26,3,18,272,0,0,0,0,0,0,0,0,0,0,0,0,0,0,0,0],"split_type":[0,0,0,0,0,0,0,0,0,0,0,0,0,0,0,0,0,0,0,0,0,0,0,0,0,0,0,0,0,0,0],"sum_hessian":[4.2092678E5,3.4379203E5,7.7134734E4,2.8367097E5,6.012107E4,7.275898E4,4.3757627E3,2.412225E5,4.244846E4,1.1475738E4,4.8645332E4,1.6948113E4,5.581086E4,4.0674932E3,3.082696E2,1.13475375E5,1.2774713E5,4.3214463E3,3.8127016E4,1.1026422E4,4.4931607E2,3.044941E4,1.8195922E4,6.74944E3,1.0198674E4,3.4130215E4,2.1680646E4,2.9714624E3,1.0960306E3,1.0784467E2,2.0042491E2],"tree_param":{"num_deleted":"0","num_feature":"720","num_nodes":"31","size_leaf_vector":"1"}},{"base_weights":[-2.179173E-3,-4.878584E-2,3.499129E-1,-9.7095065E-2,3.1704336E-1,3.072618E-1,8.9158607E-1,-1.459099E-1,3.6469844E-1,5.629685E-1,1.9684438E-1,1.9911796E-1,5.201624E-1,9.516894E-1,-1.1999133E0,-1.9574216E-2,3.5214543E-2,5.865395E-2,2.4830878E-2,1.1678627E-2,6.197828E-2,-1.5251649E-2,3.3387166E-2,-7.263109E-3,3.0837512E-2,5.4055274E-2,-1.2358129E-1,1.00719765E-1,-9.3147695E-2,-2.4398525E-1,6.1322134E-2],"categories":[],"categories_nodes":[],"categories_segments":[],"categories_sizes":[],"default_left":[0,0,0,0,0,0,0,0,0,0,0,0,0,0,0,0,0,0,0,0,0,0,0,0,0,0,0,0,0,0,0],"id":27,"left_children":[1,3,5,7,9,11,13,15,17,19,21,23,25,27,29,-1,-1,-1,-1,-1,-1,-1,-1,-1,-1,-1,-1,-1,-1,-1,-1],"loss_changes":[6.877379E3,6.5409443E3,1.1315781E3,7.369987E3,1.2760952E3,1.0455757E3,4.5060205E2,7.3386636E3,8.0688135E2,3.5921582E2,1.388391E3,8.94301E2,5.48416E2,3.6430566E2,2.2703464E2,0E0,0E0,0E0,0E0,0E0,0E0,0E0,0E0,0E0,0E0,0E0,0E0,0E0,0E0,0E0,0E0],"parents":[2147483647,0,0,1,1,2,2,3,3,4,4,5,5,6,6,7,7,8,8,9,9,10,10,11,11,12,12,13,13,14,14],"right_children":[2,4,6,8,10,12,14,16,18,20,22,24,26,28,30,-1,-1,-1,-1,-1,-1,-1,-1,-1,-1,-1,-1,-1,-1,-1,-1],"split_conditions":[1.2503488E1,1E0,1.2596291E1,1E0,7.01157E0,1.8996994E1,7.4177074E0,1E0,7.01157E0,2.4995112E0,0E0,-5.0925245E0,1.2187921E1,5.4635215E0,1.0068578E1,-1.9574216E-2,3.5214543E-2,5.865395E-2,2.4830878E-2,1.1678627E-2,6.197828E-2,-1.5251649E-2,3.3387166E-2,-7.263109E-3,3.0837512E-2,5.4055274E-2,-1.2358129E-1,1.00719765E-1,-9.3147695E-2,-2.4398525E-1,6.1322134E-2],"split_indices":[2,330,154,450,26,2,24,210,26,152,36,15,502,630,516,0,0,0,0,0,0,0,0,0,0,0,0,0,0,0,0],"split_type":[0,0,0,0,0,0,0,0,0,0,0,0,0,0,0,0,0,0,0,0,0,0,0,0,0,0,0,0,0,0,0],"sum_hessian":[4.1909894E5,3.701083E5,4.8990625E4,3.2693584E5,4.3172465E4,4.5416145E4,3.574481E3,2.9568097E5,3.1254885E4,1.4172361E4,2.9000104E4,3.0118998E4,1.52971455E4,3.4751602E3,9.9320625E1,2.687883E5,2.6892639E4,1.0753829E4,2.0501057E4,1.6011378E3,1.2571224E4,8.1699976E3,2.0830105E4,8.637005E3,2.1481992E4,1.5122239E4,1.7490654E2,3.376111E3,9.9049164E1,5.877845E1,4.054217E1],"tree_param":{"num_deleted":"0","num_feature":"720","num_nodes":"31","size_leaf_vector":"1"}},{"base_weights":[1.0288409E-3,-3.233964E-2,4.5423648E-1,-8.237014E-2,3.081709E-1,7.9204816E-1,3.3744135E-1,1.4742796E-1,-1.5497598E-1,2.9035619E-2,3.8276082E-1,9.793609E-1,5.618284E-1,1.4495683E-2,5.433222E-1,7.4645914E-3,5.8143258E-2,-2.7408564E-2,1.1510303E-3,4.12194E-2,-2.1164026E-2,1.7815286E-2,4.6421167E-2,1.1978686E-1,7.1263544E-2,3.298584E-2,8.763336E-2,-1.1354567E-2,9.493392E-2,6.696906E-2,-5.6799254E-3],"categories":[],"categories_nodes":[],"categories_segments":[],"categories_sizes":[],"default_left":[0,0,0,0,0,0,0,0,0,0,0,0,0,0,0,0,0,0,0,0,0,0,0,0,0,0,0,0,0,0,0],"id":28,"left_children":[1,3,5,7,9,11,13,15,17,19,21,23,25,27,29,-1,-1,-1,-1,-1,-1,-1,-1,-1,-1,-1,-1,-1,-1,-1,-1],"loss_changes":[6.2977407E3,6.6079194E3,1.1265054E3,5.6426387E3,1.0345645E3,3.1581738E2,1.4110879E3,2.5648418E3,5.096219E3,9.6644354E2,6.533994E2,2.348252E2,2.3999658E2,9.8924603E2,9.829263E2,0E0,0E0,0E0,0E0,0E0,0E0,0E0,0E0,0E0,0E0,0E0,0E0,0E0,0E0,0E0,0E0],"parents":[2147483647,0,0,1,1,2,2,3,3,4,4,5,5,6,6,7,7,8,8,9,9,10,10,11,11,12,12,13,13,14,14],"right_children":[2,4,6,8,10,12,14,16,18,20,22,24,26,28,30,-1,-1,-1,-1,-1,-1,-1,-1,-1,-1,-1,-1,-1,-1,-1,-1],"split_conditions":[1E0,1.3286067E1,-6.6040546E-1,-7.5879645E0,0E0,1E0,2.7761605E0,1.3586018E1,3.335767E0,7.01157E0,-1.3938919E-1,5.173177E0,1.1854147E1,8.655661E0,4.284356E0,7.4645914E-3,5.8143258E-2,-2.7408564E-2,1.1510303E-3,4.12194E-2,-2.1164026E-2,1.7815286E-2,4.6421167E-2,1.1978686E-1,7.1263544E-2,3.298584E-2,8.763336E-2,-1.1354567E-2,9.493392E-2,6.696906E-2,-5.6799254E-3],"split_indices":[87,126,241,4,636,82,158,19,38,26,271,39,2,386,617,0,0,0,0,0,0,0,0,0,0,0,0,0,0,0,0],"split_type":[0,0,0,0,0,0,0,0,0,0,0,0,0,0,0,0,0,0,0,0,0,0,0,0,0,0,0,0,0,0,0],"sum_hessian":[4.1643678E5,3.878792E5,2.8557592E4,3.3819034E5,4.9688844E4,7.3353774E3,2.1222213E4,8.119774E4,2.5699261E5,1.0478159E4,3.9210684E4,4.0427983E3,3.2925789E3,8.262573E3,1.2959641E4,6.9537555E4,1.1660191E4,1.4981177E5,1.07180836E5,4.0422092E3,6.4359497E3,1.1165544E4,2.8045139E4,2.2203472E3,1.8224513E3,1.8961106E3,1.3964683E3,7.267988E3,9.945853E2,1.0705296E4,2.2543452E3],"tree_param":{"num_deleted":"0","num_feature":"720","num_nodes":"31","size_leaf_vector":"1"}},{"base_weights":[-2.918979E-4,1.6524652E-1,-9.059515E-2,3.7091726E-1,5.2036166E-2,4.419641E-1,-1.2631452E-1,3.0328327E-1,7.6402825E-1,-3.5984386E-2,3.3570513E-1,5.634506E-1,-3.4968373E-1,-2.638789E-1,6.527492E-2,1.9404355E-2,5.424423E-2,-1.4199779E-3,8.6438484E-2,-1.7007498E-2,1.6203396E-2,9.244955E-2,2.8140932E-2,7.785009E-2,2.1142429E-2,1.3525276E-1,-6.9663726E-2,-3.0711172E-2,4.939474E-2,-6.0391854E-3,2.3388676E-2],"categories":[],"categories_nodes":[],"categories_segments":[],"categories_sizes":[],"default_left":[0,0,0,0,0,0,0,0,0,0,0,0,0,0,0,0,0,0,0,0,0,0,0,0,0,0,0,0,0,0,0],"id":29,"left_children":[1,3,5,7,9,11,13,15,17,19,21,23,25,27,29,-1,-1,-1,-1,-1,-1,-1,-1,-1,-1,-1,-1,-1,-1,-1,-1],"loss_changes":[6.204581E3,3.4111318E3,5.108744E3,1.3826299E3,2.3593352E3,1.6236731E3,6.6332207E3,1.159303E3,5.9624854E2,1.914866E3,7.150991E2,1.1077583E3,1.3276741E3,4.799716E3,2.2287815E3,0E0,0E0,0E0,0E0,0E0,0E0,0E0,0E0,0E0,0E0,0E0,0E0,0E0,0E0,0E0,0E0],"parents":[2147483647,0,0,1,1,2,2,3,3,4,4,5,5,6,6,7,7,8,8,9,9,10,10,11,11,12,12,13,13,14,14],"right_children":[2,4,6,8,10,12,14,16,18,20,22,24,26,28,30,-1,-1,-1,-1,-1,-1,-1,-1,-1,-1,-1,-1,-1,-1,-1,-1],"split_conditions":[1.0628896E1,-4.7302637E0,-1.2491603E1,9.728574E0,7.434841E0,3.749402E-1,3.3289878E0,0E0,-4.6413646E0,-8.3873683E-1,-1.5982684E1,2.984544E0,-7.6279693E0,1.7178822E1,4.4622884E0,1.9404355E-2,5.424423E-2,-1.4199779E-3,8.6438484E-2,-1.7007498E-2,1.6203396E-2,9.244955E-2,2.8140932E-2,7.785009E-2,2.1142429E-2,1.3525276E-1,-6.9663726E-2,-3.0711172E-2,4.939474E-2,-6.0391854E-3,2.3388676E-2],"split_indices":[14,4,38,614,31,628,38,483,270,614,1,34,630,2,19,0,0,0,0,0,0,0,0,0,0,0,0,0,0,0,0],"split_type":[0,0,0,0,0,0,0,0,0,0,0,0,0,0,0,0,0,0,0,0,0,0,0,0,0,0,0,0,0,0,0],"sum_hessian":[4.150574E5,1.465006E5,2.685568E5,5.201038E4,9.449022E4,1.6879525E4,2.5167728E5,4.4377145E4,7.633232E3,7.211447E4,2.2375756E4,1.4634065E4,2.2454587E3,1.464927E5,1.0518458E5,3.0464027E4,1.3913118E4,8.720063E2,6.7612256E3,4.299799E4,2.911648E4,1.8878341E3,2.0487922E4,9.083692E3,5.550373E3,3.796982E2,1.8657605E3,1.3858712E5,7.9055786E3,6.026763E4,4.491695E4],"tree_param":{"num_deleted":"0","num_feature":"720","num_nodes":"31","size_leaf_vector":"1"}},{"base_weights":[-8.227139E-4,-9.017202E-2,1.6451691E-1,-1.2857215E-1,3.5780725E-1,4.2399287E-1,8.5812934E-2,-1.5818253E-1,4.9828047E-1,1.163041E0,3.0890095E-1,2.6480228E-1,9.1270965E-1,3.9346763E-1,3.1363077E-2,-3.3069555E-2,-5.8872923E-3,2.6854057E-2,7.49721E-2,-1.6972351E-1,1.297778E-1,2.0582872E-2,7.022608E-2,4.1954976E-2,-4.1103787E-3,1.3812777E-1,5.0136298E-2,-4.6617802E-2,4.627086E-2,-1.5409529E-2,1.3742226E-2],"categories":[],"categories_nodes":[],"categories_segments":[],"categories_sizes":[],"default_left":[0,0,0,0,0,0,0,0,0,0,0,0,0,0,0,0,0,0,0,0,0,0,0,0,0,0,0,0,0,0,0],"id":30,"left_children":[1,3,5,7,9,11,13,15,17,19,21,23,25,27,29,-1,-1,-1,-1,-1,-1,-1,-1,-1,-1,-1,-1,-1,-1,-1,-1],"loss_changes":[6.102764E3,4.6133906E3,2.9595667E3,4.5848623E3,8.334658E2,2.623734E3,1.8627354E3,4.0408892E3,6.4341064E2,4.6928027E2,8.092168E2,1.2044015E3,1.5964692E3,9.954763E2,1.858352E3,0E0,0E0,0E0,0E0,0E0,0E0,0E0,0E0,0E0,0E0,0E0,0E0,0E0,0E0,0E0,0E0],"parents":[2147483647,0,0,1,1,2,2,3,3,4,4,5,5,6,6,7,7,8,8,9,9,10,10,11,11,12,12,13,13,14,14],"right_children":[2,4,6,8,10,12,14,16,18,20,22,24,26,28,30,-1,-1,-1,-1,-1,-1,-1,-1,-1,-1,-1,-1,-1,-1,-1,-1],"split_conditions":[3.4786835E0,1E0,1E0,1E0,-1.39714575E1,1E0,-7.577121E0,-4.2496094E-1,1E0,-4.1354346E0,1.0068578E1,1E0,-1.7220908E0,-1.2365417E1,-4.2496094E-1,-3.3069555E-2,-5.8872923E-3,2.6854057E-2,7.49721E-2,-1.6972351E-1,1.297778E-1,2.0582872E-2,7.022608E-2,4.1954976E-2,-4.1103787E-3,1.3812777E-1,5.0136298E-2,-4.6617802E-2,4.627086E-2,-1.5409529E-2,1.3742226E-2],"split_indices":[6,87,683,102,615,684,12,15,716,159,156,563,159,368,135,0,0,0,0,0,0,0,0,0,0,0,0,0,0,0,0],"split_type":[0,0,0,0,0,0,0,0,0,0,0,0,0,0,0,0,0,0,0,0,0,0,0,0,0,0,0,0,0,0,0],"sum_hessian":[4.1310112E5,2.6817834E5,1.4492277E5,2.4700608E5,2.1172283E4,3.3726582E4,1.1119618E5,2.3586534E5,1.1140728E4,1.2109768E3,1.9961307E4,2.5441137E4,8.285444E3,1.6719693E4,9.4476484E4,8.617187E4,1.4969348E5,5.822661E3,5.318067E3,5.3956646E1,1.1570201E3,1.5818026E4,4.143281E3,1.6894443E4,8.546694E3,3.872216E3,4.4132285E3,1.2458899E3,1.5473803E4,3.4372035E4,6.010445E4],"tree_param":{"num_deleted":"0","num_feature":"720","num_nodes":"31","size_leaf_vector":"1"}},{"base_weights":[4.3236002E-4,-4.761585E-2,2.779597E-1,1.5969715E-1,-1.3555549E-1,4.9250293E-1,2.1232317E-1,7.1071354E-3,4.2251265E-1,-2.0761864E-1,2.2701044E-1,4.9828213E-1,-4.100941E0,2.3188406E-1,-3.8927937E-1,-1.5739948E-2,2.8908087E-2,7.961961E-2,2.0426584E-2,1.6941266E-2,-2.7412876E-2,7.398018E-2,1.607111E-2,5.6221493E-2,1.4017974E-2,-1.8771026E-1,-4.463508E-1,1.6273918E-2,3.901326E-2,-2.2694948E-1,-1.0400068E-2],"categories":[],"categories_nodes":[],"categories_segments":[],"categories_sizes":[],"default_left":[0,0,0,0,0,0,0,0,0,0,0,0,0,0,0,0,0,0,0,0,0,0,0,0,0,0,0,0,0,0,0],"id":31,"left_children":[1,3,5,7,9,11,13,15,17,19,21,23,25,27,29,-1,-1,-1,-1,-1,-1,-1,-1,-1,-1,-1,-1,-1,-1,-1,-1],"loss_changes":[5.4978794E3,6.407357E3,8.567329E2,4.197937E3,6.4476777E3,3.8042578E2,5.48406E2,3.0721538E3,3.1357524E3,5.162242E3,1.3909529E3,3.2585913E2,6.1499634E0,4.9372583E2,7.8699536E2,0E0,0E0,0E0,0E0,0E0,0E0,0E0,0E0,0E0,0E0,0E0,0E0,0E0,0E0,0E0,0E0],"parents":[2147483647,0,0,1,1,2,2,3,3,4,4,5,5,6,6,7,7,8,8,9,9,10,10,11,11,12,12,13,13,14,14],"right_children":[2,4,6,8,10,12,14,16,18,20,22,24,26,28,30,-1,-1,-1,-1,-1,-1,-1,-1,-1,-1,-1,-1,-1,-1,-1,-1],"split_conditions":[8.6208105E0,-5.514488E0,1E0,1.0068578E1,9.6463785E0,2.7349846E1,1.2629177E1,3.3431628E0,2.2510674E0,0E0,-8.167124E0,1E0,1.1034154E1,8.217799E0,-6.7772093E0,-1.5739948E-2,2.8908087E-2,7.961961E-2,2.0426584E-2,1.6941266E-2,-2.7412876E-2,7.398018E-2,1.607111E-2,5.6221493E-2,1.4017974E-2,-1.8771026E-1,-4.463508E-1,1.6273918E-2,3.901326E-2,-2.2694948E-1,-1.0400068E-2],"split_indices":[639,39,685,36,482,605,127,158,158,17,151,565,39,2,385,0,0,0,0,0,0,0,0,0,0,0,0,0,0,0,0],"split_type":[0,0,0,0,0,0,0,0,0,0,0,0,0,0,0,0,0,0,0,0,0,0,0,0,0,0,0,0,0,0,0],"sum_hessian":[4.1229697E5,3.514512E5,6.0845793E4,1.0467788E5,2.4677331E5,1.4252564E4,4.6593227E4,6.622743E4,3.845045E4,2.0585772E5,4.091559E4,1.4235545E4,1.701884E1,4.5126566E4,1.46666E3,4.1826074E4,2.4401355E4,1.4175845E4,2.4274605E4,3.0868643E4,1.7498908E5,4.683211E3,3.623238E4,1.2078564E4,2.156981E3,3.2516725E0,1.3767168E1,3.140607E4,1.3720497E4,1.9229913E2,1.274361E3],"tree_param":{"num_deleted":"0","num_feature":"720","num_nodes":"31","size_leaf_vector":"1"}},{"base_weights":[-1.5084881E-3,-2.7375052E-2,5.191966E-1,-9.155932E-2,1.8423103E-1,2.076505E-1,6.4201355E-1,7.455495E-2,-2.230184E-1,1.5073448E-1,6.0003954E-1,8.736138E-1,9.6528344E-2,4.1367275E-1,7.4608094E-1,9.006869E-2,3.6814974E-3,-2.9849663E-2,1.5904106E-2,7.0376047E-3,3.135214E-2,8.672408E-2,5.030921E-2,-2.2081664E-1,9.588312E-2,-2.8750757E-2,2.5417117E-2,6.274893E-2,1.0782658E-2,2.058599E-2,8.135225E-2],"categories":[],"categories_nodes":[],"categories_segments":[],"categories_sizes":[],"default_left":[0,0,0,0,0,0,0,0,0,0,0,0,0,0,0,0,0,0,0,0,0,0,0,0,0,0,0,0,0,0,0],"id":32,"left_children":[1,3,5,7,9,11,13,15,17,19,21,23,25,27,29,-1,-1,-1,-1,-1,-1,-1,-1,-1,-1,-1,-1,-1,-1,-1,-1],"loss_changes":[5.515927E3,5.2989604E3,7.414497E2,6.537041E3,1.2645791E3,4.0556696E2,3.3000977E2,4.12315E3,4.818959E3,1.0992206E3,1.7490967E2,2.0794092E2,2.8454108E2,2.8467017E2,3.476792E2,0E0,0E0,0E0,0E0,0E0,0E0,0E0,0E0,0E0,0E0,0E0,0E0,0E0,0E0,0E0,0E0],"parents":[2147483647,0,0,1,1,2,2,3,3,4,4,5,5,6,6,7,7,8,8,9,9,10,10,11,11,12,12,13,13,14,14],"right_children":[2,4,6,8,10,12,14,16,18,20,22,24,26,28,30,-1,-1,-1,-1,-1,-1,-1,-1,-1,-1,-1,-1,-1,-1,-1,-1],"split_conditions":[1E0,4.138887E0,1.8414836E0,-4.1354346E0,1E0,-1.7283365E1,-1.1223267E-1,-1.0711968E1,9.6463785E0,6.009981E0,1E0,-1.676688E1,3.5052866E-1,1E0,-6.6745305E0,9.006869E-2,3.6814974E-3,-2.9849663E-2,1.5904106E-2,7.0376047E-3,3.135214E-2,8.672408E-2,5.030921E-2,-2.2081664E-1,9.588312E-2,-2.8750757E-2,2.5417117E-2,6.274893E-2,1.0782658E-2,2.058599E-2,8.135225E-2],"split_indices":[222,639,632,159,332,131,10,33,362,122,328,124,255,82,30,0,0,0,0,0,0,0,0,0,0,0,0,0,0,0,0],"split_type":[0,0,0,0,0,0,0,0,0,0,0,0,0,0,0,0,0,0,0,0,0,0,0,0,0,0,0,0,0,0,0],"sum_hessian":[4.0953E5,3.9014984E5,1.9380148E4,2.993513E5,9.079855E4,5.4805312E3,1.3899617E4,1.322447E5,1.671066E5,8.40306E4,6.767944E3,7.827273E2,4.697804E3,4.3531245E3,9.546492E3,5.776377E3,1.26468336E5,1.3953984E5,2.7566754E4,5.625983E4,2.7770775E4,1.7997166E3,4.9682275E3,2.0391264E1,7.62336E2,1.3669454E3,3.3308586E3,2.5614014E3,1.7917229E3,1.0599689E3,8.486523E3],"tree_param":{"num_deleted":"0","num_feature":"720","num_nodes":"31","size_leaf_vector":"1"}},{"base_weights":[-2.7193362E-4,-4.180078E-2,2.9067108E-1,-1.7428714E-1,6.710487E-2,3.7940592E-1,1.02212586E-1,-3.9603643E-2,-3.58375E-1,-6.736573E-2,1.7241627E-1,-1.6631153E-1,4.3184066E-1,-3.1153727E-2,4.2219007E-1,-1.30195785E-2,2.937272E-2,-5.561319E-2,-1.4676692E-2,-1.8488325E-2,1.7223822E-2,2.9028324E-2,-5.3692344E-3,-2.7687198E-2,9.134003E-2,3.566847E-2,7.7817634E-2,5.3735625E-2,-1.1676935E-2,9.035666E-2,3.1786654E-2],"categories":[],"categories_nodes":[],"categories_segments":[],"categories_sizes":[],"default_left":[0,0,0,0,0,0,0,0,0,0,0,0,0,0,0,0,0,0,0,0,0,0,0,0,0,0,0,0,0,0,0],"id":33,"left_children":[1,3,5,7,9,11,13,15,17,19,21,23,25,27,29,-1,-1,-1,-1,-1,-1,-1,-1,-1,-1,-1,-1,-1,-1,-1,-1],"loss_changes":[4.925792E3,5.1474707E3,8.515371E2,3.9905942E3,2.7728462E3,9.9074023E2,6.957206E2,2.806872E3,2.8456758E3,2.421508E3,2.9264727E3,3.626293E2,8.2189355E2,5.601802E2,2.4056622E2,0E0,0E0,0E0,0E0,0E0,0E0,0E0,0E0,0E0,0E0,0E0,0E0,0E0,0E0,0E0,0E0],"parents":[2147483647,0,0,1,1,2,2,3,3,4,4,5,5,6,6,7,7,8,8,9,9,10,10,11,11,12,12,13,13,14,14],"right_children":[2,4,6,8,10,12,14,16,18,20,22,24,26,28,30,-1,-1,-1,-1,-1,-1,-1,-1,-1,-1,-1,-1,-1,-1,-1,-1],"split_conditions":[1E0,0E0,1E0,-2.448327E-1,-3.3970064E-1,1E0,4.0601056E-2,6.6318536E0,3.291393E0,4.8284135E0,1.0741172E-1,6.34581E0,1E0,-1.1259531E1,-2.5593998E1,-1.30195785E-2,2.937272E-2,-5.561319E-2,-1.4676692E-2,-1.8488325E-2,1.7223822E-2,2.9028324E-2,-5.3692344E-3,-2.7687198E-2,9.134003E-2,3.566847E-2,7.7817634E-2,5.3735625E-2,-1.1676935E-2,9.035666E-2,3.1786654E-2],"split_indices":[330,0,562,4,19,439,130,19,38,39,123,293,333,484,137,0,0,0,0,0,0,0,0,0,0,0,0,0,0,0,0],"split_type":[0,0,0,0,0,0,0,0,0,0,0,0,0,0,0,0,0,0,0,0,0,0,0,0,0,0,0,0,0,0,0],"sum_hessian":[4.0767694E5,3.5675503E5,5.092191E4,1.6095219E5,1.9580283E5,3.4620152E4,1.6301758E4,9.294929E4,6.800291E4,8.599606E4,1.09806766E5,3.0346538E3,3.15855E4,1.1506685E4,4.7950728E3,7.308655E4,1.986274E4,3.515108E4,3.285183E4,5.7697598E4,2.8298465E4,7.21801E4,3.7626668E4,2.7534495E3,2.8120444E2,2.5955172E4,5.630328E3,1.5053685E3,1.0001316E4,8.5272253E2,3.9423503E3],"tree_param":{"num_deleted":"0","num_feature":"720","num_nodes":"31","size_leaf_vector":"1"}},{"base_weights":[-1.1021111E-4,-3.79778E-2,3.2666692E-1,-8.047562E-2,2.7812713E-1,5.6827235E-1,2.649071E-1,-1.368743E-1,1.6917935E-1,4.15283E-1,4.4608522E-2,-3.4942144E-1,6.270459E-1,3.1928572E-1,-1.1581364E-1,-1.813255E-2,2.6030589E-2,3.5384502E-2,-1.2657945E-2,3.4856148E-2,7.59003E-2,9.353514E-2,-1.374217E-3,4.1638967E-2,-1.5638162E-1,6.789576E-2,-4.6326935E-2,3.3343136E-2,-1.1421167E-1,3.4822386E-2,-4.1936677E-2],"categories":[],"categories_nodes":[],"categories_segments":[],"categories_sizes":[],"default_left":[0,0,0,0,0,0,0,0,0,0,0,0,0,0,0,0,0,0,0,0,0,0,0,0,0,0,0,0,0,0,0],"id":34,"left_children":[1,3,5,7,9,11,13,15,17,19,21,23,25,27,29,-1,-1,-1,-1,-1,-1,-1,-1,-1,-1,-1,-1,-1,-1,-1,-1],"loss_changes":[5.0269854E3,4.8906885E3,6.293535E2,4.518561E3,1.3818328E3,4.6341187E2,6.9567944E2,4.621762E3,3.2299304E3,6.2307275E2,8.298175E2,4.819635E2,4.5714917E2,6.0818726E2,5.91782E2,0E0,0E0,0E0,0E0,0E0,0E0,0E0,0E0,0E0,0E0,0E0,0E0,0E0,0E0,0E0,0E0],"parents":[2147483647,0,0,1,1,2,2,3,3,4,4,5,5,6,6,7,7,8,8,9,9,10,10,11,11,12,12,13,13,14,14],"right_children":[2,4,6,8,10,12,14,16,18,20,22,24,26,28,30,-1,-1,-1,-1,-1,-1,-1,-1,-1,-1,-1,-1,-1,-1,-1,-1],"split_conditions":[1.5825824E1,1E0,-2.5380392E0,6.6318536E0,1E0,-1.7022753E1,5.1063185E0,1.2503488E1,1.0741172E-1,1E0,-1.7886126E1,-2.3016992E0,1.5880139E1,1.5506639E1,-2.2206616E0,-1.813255E-2,2.6030589E-2,3.5384502E-2,-1.2657945E-2,3.4856148E-2,7.59003E-2,9.353514E-2,-1.374217E-3,4.1638967E-2,-1.5638162E-1,6.789576E-2,-4.6326935E-2,3.3343136E-2,-1.1421167E-1,3.4822386E-2,-4.1936677E-2],"split_indices":[0,450,11,19,202,488,497,122,603,453,122,242,602,632,153,0,0,0,0,0,0,0,0,0,0,0,0,0,0,0,0],"split_type":[0,0,0,0,0,0,0,0,0,0,0,0,0,0,0,0,0,0,0,0,0,0,0,0,0,0,0,0,0,0,0],"sum_hessian":[4.0624328E5,3.6405656E5,4.218672E4,3.2091306E5,4.3143492E4,8.586804E3,3.3599918E4,2.617765E5,5.9136566E4,2.7179176E4,1.5964315E4,5.165419E2,8.0702617E3,2.9400746E4,4.1991694E3,2.3542861E5,2.6347902E4,3.640552E4,2.2731045E4,2.2762605E4,4.416571E3,9.8056915E2,1.4983746E4,3.17181E2,1.9936084E2,7.703846E3,3.664154E2,2.9119654E4,2.810917E2,1.6605549E3,2.5386147E3],"tree_param":{"num_deleted":"0","num_feature":"720","num_nodes":"31","size_leaf_vector":"1"}},{"base_weights":[2.3034096E-3,8.973028E-2,-1.2617314E-1,2.8822422E-2,4.9511057E-1,-1.9422811E-1,2.1724688E-1,-3.6363192E-2,2.9396534E-1,1.3144214E0,2.8686005E-1,-3.0746478E-1,3.464162E-2,5.571578E-1,1.3063066E-1,3.172274E-2,-8.941332E-3,6.102376E-2,1.6049748E-2,1.4171873E-1,3.703921E-2,8.174708E-2,1.308649E-2,-6.2354347E-3,-4.3431062E-2,-6.1533586E-3,3.5651024E-2,8.428971E-2,3.1756464E-2,1.6047806E-2,-8.771318E-2],"categories":[],"categories_nodes":[],"categories_segments":[],"categories_sizes":[],"default_left":[0,0,0,0,0,0,0,0,0,0,0,0,0,0,0,0,0,0,0,0,0,0,0,0,0,0,0,0,0,0,0],"id":35,"left_children":[1,3,5,7,9,11,13,15,17,19,21,23,25,27,29,-1,-1,-1,-1,-1,-1,-1,-1,-1,-1,-1,-1,-1,-1,-1,-1],"loss_changes":[4.549486E3,5.9510386E3,3.8332683E3,3.6216077E3,5.3713105E3,3.5476396E3,7.985973E2,3.1549724E3,1.7453748E3,6.184453E2,2.0777996E3,2.8472422E3,1.4026388E3,3.76849E2,6.504387E2,0E0,0E0,0E0,0E0,0E0,0E0,0E0,0E0,0E0,0E0,0E0,0E0,0E0,0E0,0E0,0E0],"parents":[2147483647,0,0,1,1,2,2,3,3,4,4,5,5,6,6,7,7,8,8,9,9,10,10,11,11,12,12,13,13,14,14],"right_children":[2,4,6,8,10,12,14,16,18,20,22,24,26,28,30,-1,-1,-1,-1,-1,-1,-1,-1,-1,-1,-1,-1,-1,-1,-1,-1],"split_conditions":[1.0741172E-1,-1.07812375E-1,1.0689392E1,6.6318536E0,0E0,4.1918073E0,1E0,-6.4980464E0,4.8493457E0,6.5522304E0,-7.9533607E-1,-4.031094E-2,8.220658E0,1E0,2.060684E1,3.172274E-2,-8.941332E-3,6.102376E-2,1.6049748E-2,1.4171873E-1,3.703921E-2,8.174708E-2,1.308649E-2,-6.2354347E-3,-4.3431062E-2,-6.1533586E-3,3.5651024E-2,8.428971E-2,3.1756464E-2,1.6047806E-2,-8.771318E-2],"split_indices":[123,123,639,19,397,2,325,12,615,279,38,10,274,203,375,0,0,0,0,0,0,0,0,0,0,0,0,0,0,0,0],"split_type":[0,0,0,0,0,0,0,0,0,0,0,0,0,0,0,0,0,0,0,0,0,0,0,0,0,0,0,0,0,0,0],"sum_hessian":[4.050339E5,2.4102166E5,1.6401227E5,2.0953967E5,3.1481988E4,1.3688619E5,2.7126076E4,1.681907E5,4.1348965E4,6.3792144E3,2.5102773E4,9.157685E4,4.5309336E4,5.5074746E3,2.1618602E4,2.1941418E4,1.4624928E5,1.2269933E4,2.9079033E4,5.752503E3,6.2671155E2,5.702324E3,1.940045E4,3.1230367E4,6.0346484E4,3.4886086E4,1.0423247E4,2.5106963E3,2.9967783E3,2.0997547E4,6.2105396E2],"tree_param":{"num_deleted":"0","num_feature":"720","num_nodes":"31","size_leaf_vector":"1"}},{"base_weights":[4.432296E-3,2.0334841E-1,-5.5176266E-2,3.901039E-1,1.0300581E-1,-9.75812E-2,2.4281429E-1,7.625689E-1,3.330829E-1,-9.416461E-2,2.695522E-1,2.9626293E-2,-2.1418E-1,6.0285716E-3,3.3670604E-1,2.6460245E-2,1.0312541E-1,5.569428E-2,2.0454364E-2,-1.7442456E-2,8.522876E-2,4.459811E-2,6.924916E-3,1.3965665E-2,-2.3324229E-2,8.443314E-3,-3.607707E-2,-1.8517444E-2,5.255468E-2,2.499388E-2,6.6161275E-2],"categories":[],"categories_nodes":[],"categories_segments":[],"categories_sizes":[],"default_left":[0,0,0,0,0,0,0,0,0,0,0,0,0,0,0,0,0,0,0,0,0,0,0,0,0,0,0,0,0,0,0],"id":36,"left_children":[1,3,5,7,9,11,13,15,17,19,21,23,25,27,29,-1,-1,-1,-1,-1,-1,-1,-1,-1,-1,-1,-1,-1,-1,-1,-1],"loss_changes":[4.7944336E3,1.747085E3,3.9314092E3,6.9179297E2,1.991593E3,4.0397458E3,8.6167725E2,5.784453E2,8.1307495E2,2.1097432E3,1.1618376E3,3.767503E3,6.220598E3,1.0933513E3,7.822322E2,0E0,0E0,0E0,0E0,0E0,0E0,0E0,0E0,0E0,0E0,0E0,0E0,0E0,0E0,0E0,0E0],"parents":[2147483647,0,0,1,1,2,2,3,3,4,4,5,5,6,6,7,7,8,8,9,9,10,10,11,11,12,12,13,13,14,14],"right_children":[2,4,6,8,10,12,14,16,18,20,22,24,26,28,30,-1,-1,-1,-1,-1,-1,-1,-1,-1,-1,-1,-1,-1,-1,-1,-1],"split_conditions":[-7.7899017E0,1.0628896E1,4.0601056E-2,-2.2913485E0,1.6797456E0,0E0,0E0,-3.995184E0,-3.5632448E0,1.6498812E1,-4.8249617E0,9.931422E0,-6.2040153E0,1.0068578E1,8.086398E0,2.6460245E-2,1.0312541E-1,5.569428E-2,2.0454364E-2,-1.7442456E-2,8.522876E-2,4.459811E-2,6.924916E-3,1.3965665E-2,-2.3324229E-2,8.443314E-3,-3.607707E-2,-1.8517444E-2,5.255468E-2,2.499388E-2,6.6161275E-2],"split_indices":[124,14,10,17,19,10,9,16,25,513,279,37,39,636,154,0,0,0,0,0,0,0,0,0,0,0,0,0,0,0,0],"split_type":[0,0,0,0,0,0,0,0,0,0,0,0,0,0,0,0,0,0,0,0,0,0,0,0,0,0,0,0,0,0,0],"sum_hessian":[4.043492E5,9.3231055E4,3.1111812E5,3.2583836E4,6.064722E4,2.7236103E5,3.8757105E4,4.324372E3,2.8259465E4,2.7770639E4,3.2876582E4,1.30255266E5,1.4210575E5,1.10049E4,2.7752205E4,1.5162399E3,2.808132E3,1.0306561E4,1.7952904E4,2.560051E4,2.170129E3,1.7479363E4,1.5397219E4,9.18215E4,3.8433766E4,4.6790805E4,9.531495E4,8.044759E3,2.9601418E3,2.1904355E4,5.8478506E3],"tree_param":{"num_deleted":"0","num_feature":"720","num_nodes":"31","size_leaf_vector":"1"}},{"base_weights":[-8.329733E-3,-3.1073298E-2,4.6596053E-1,-8.986858E-2,1.4031455E-1,5.938421E-1,1.7925982E-1,3.6009562E-1,-1.2592733E-1,8.915749E-1,1.1486448E-1,7.976199E-1,3.152058E-1,6.1716473E-1,2.8746204E-2,4.228848E-2,-8.2620785E-2,-1.6148906E-2,3.8299974E-2,9.535282E-2,-1.554452E-1,2.8456751E-2,5.349723E-4,2.9278044E-2,8.8232376E-2,8.9906445E-3,5.890233E-2,1.5512149E-1,3.8856205E-2,-3.941223E-2,2.6458088E-2],"categories":[],"categories_nodes":[],"categories_segments":[],"categories_sizes":[],"default_left":[0,0,0,0,0,0,0,0,0,0,0,0,0,0,0,0,0,0,0,0,0,0,0,0,0,0,0,0,0,0,0],"id":37,"left_children":[1,3,5,7,9,11,13,15,17,19,21,23,25,27,29,-1,-1,-1,-1,-1,-1,-1,-1,-1,-1,-1,-1,-1,-1,-1,-1],"loss_changes":[4.323379E3,3.853917E3,6.7229663E2,4.6203896E3,1.8676897E3,7.198452E2,3.7293674E2,1.5740623E3,4.7714707E3,4.865298E2,1.7560935E3,3.1294922E2,3.3053607E2,3.0844568E2,4.201677E2,0E0,0E0,0E0,0E0,0E0,0E0,0E0,0E0,0E0,0E0,0E0,0E0,0E0,0E0,0E0,0E0],"parents":[2147483647,0,0,1,1,2,2,3,3,4,4,5,5,6,6,7,7,8,8,9,9,10,10,11,11,12,12,13,13,14,14],"right_children":[2,4,6,8,10,12,14,16,18,20,22,24,26,28,30,-1,-1,-1,-1,-1,-1,-1,-1,-1,-1,-1,-1,-1,-1,-1,-1],"split_conditions":[1E0,5.3702497E0,2.8434465E0,-1.1629391E1,-1.8405567E1,1E0,-6.726685E0,4.922877E0,1E0,1.6825325E1,7.01157E0,-5.922194E0,2.8642926E0,-1.1871458E1,2.776777E0,4.228848E-2,-8.2620785E-2,-1.6148906E-2,3.8299974E-2,9.535282E-2,-1.554452E-1,2.8456751E-2,5.349723E-4,2.9278044E-2,8.8232376E-2,8.9906445E-3,5.890233E-2,1.5512149E-1,3.8856205E-2,-3.941223E-2,2.6458088E-2],"split_indices":[342,31,18,38,482,322,628,389,87,136,26,30,278,484,518,0,0,0,0,0,0,0,0,0,0,0,0,0,0,0,0],"split_type":[0,0,0,0,0,0,0,0,0,0,0,0,0,0,0,0,0,0,0,0,0,0,0,0,0,0,0,0,0,0,0],"sum_hessian":[4.0079103E5,3.8245228E5,1.8338738E4,2.847635E5,9.768879E4,1.2681253E4,5.657486E3,2.112635E4,2.6363716E5,3.1998018E3,9.4488984E4,7.323455E3,5.3577974E3,1.446355E3,4.211131E3,2.0064984E4,1.0613641E3,2.464191E5,1.7218066E4,3.121354E3,7.8447876E1,3.705983E4,5.7429152E4,1.0528527E3,6.2706025E3,2.9400378E3,2.4177598E3,2.8324713E2,1.1631079E3,1.5074657E3,2.7036655E3],"tree_param":{"num_deleted":"0","num_feature":"720","num_nodes":"31","size_leaf_vector":"1"}},{"base_weights":[1.0576865E-4,-3.938723E-2,2.6676828E-1,1.4248778E-1,-9.1156945E-2,4.9071714E-1,1.8899128E-1,-4.922942E-3,2.7612254E-1,-1.8466172E-1,3.7366208E-2,1.9728582E-1,6.8651676E-1,1.7771088E-2,3.3312392E-1,2.6564604E-2,-1.47835035E-2,5.964995E-2,1.745714E-2,-8.5620675E-4,-3.338551E-2,3.4451872E-2,-5.936637E-3,1.5018405E-2,2.128344E-1,8.393132E-2,3.226552E-2,-5.3407837E-2,8.629067E-3,-4.958122E-2,3.606327E-2],"categories":[],"categories_nodes":[],"categories_segments":[],"categories_sizes":[],"default_left":[0,0,0,0,0,0,0,0,0,0,0,0,0,0,0,0,0,0,0,0,0,0,0,0,0,0,0,0,0,0,0],"id":38,"left_children":[1,3,5,7,9,11,13,15,17,19,21,23,25,27,29,-1,-1,-1,-1,-1,-1,-1,-1,-1,-1,-1,-1,-1,-1,-1,-1],"loss_changes":[4.217702E3,3.2844622E3,8.9976074E2,1.522596E3,3.263231E3,7.6494775E2,9.4632715E2,1.4211802E3,1.3188643E3,4.1296553E3,3.3977427E3,4.845611E2,4.4375684E2,6.6280225E2,4.7494067E2,0E0,0E0,0E0,0E0,0E0,0E0,0E0,0E0,0E0,0E0,0E0,0E0,0E0,0E0,0E0,0E0],"parents":[2147483647,0,0,1,1,2,2,3,3,4,4,5,5,6,6,7,7,8,8,9,9,10,10,11,11,12,12,13,13,14,14],"right_children":[2,4,6,8,10,12,14,16,18,20,22,24,26,28,30,-1,-1,-1,-1,-1,-1,-1,-1,-1,-1,-1,-1,-1,-1,-1,-1],"split_conditions":[1.3286067E1,-7.5879645E0,-1.506554E0,1.6797456E0,3.335767E0,-1.3510401E0,3.390002E0,8.63609E0,-6.893542E0,1.0332456E0,-6.2040153E0,2.8351482E1,2.5467825E0,-6.756281E0,-2.1999895E1,2.6564604E-2,-1.47835035E-2,5.964995E-2,1.745714E-2,-8.5620675E-4,-3.338551E-2,3.4451872E-2,-5.936637E-3,1.5018405E-2,2.128344E-1,8.393132E-2,3.226552E-2,-5.3407837E-2,8.629067E-3,-4.958122E-2,3.606327E-2],"split_indices":[6,244,278,19,38,381,158,134,639,38,39,138,621,271,394,0,0,0,0,0,0,0,0,0,0,0,0,0,0,0,0],"split_type":[0,0,0,0,0,0,0,0,0,0,0,0,0,0,0,0,0,0,0,0,0,0,0,0,0,0,0,0,0,0,0],"sum_hessian":[4.0049E5,3.4882894E5,5.1661082E4,7.729121E4,2.7153772E5,1.33155E4,3.8345582E4,3.6751777E4,4.0539434E4,1.5718216E5,1.1435556E5,5.3299224E3,7.985577E3,1.7526438E4,2.0819143E4,1.2702275E4,2.4049504E4,9.756E3,3.0783434E4,7.2090984E4,8.509117E4,2.7388137E4,8.696742E4,5.2040645E3,1.2585813E2,5.6230024E3,2.3625747E3,1.9350394E3,1.5591398E4,6.681582E2,2.0150984E4],"tree_param":{"num_deleted":"0","num_feature":"720","num_nodes":"31","size_leaf_vector":"1"}},{"base_weights":[-2.5024947E-3,-4.6125423E-2,2.3883696E-1,-6.7976944E-2,4.1575214E-1,-9.122519E-3,2.870011E-1,-5.9705093E-3,-2.4373311E-1,9.4987586E-2,5.6017613E-1,-6.0285616E-1,1.0166074E-1,5.110109E-1,2.3090836E-1,-8.514601E-3,2.0474657E-2,2.8981033E-3,-3.6599707E-2,-3.3924695E-2,2.9395744E-2,7.923316E-2,4.24046E-2,-1.1029675E-1,4.0048104E-2,3.7205633E-2,-2.3846013E-2,5.309059E-2,-1.9131093E-1,5.766912E-2,1.8918235E-2],"categories":[],"categories_nodes":[],"categories_segments":[],"categories_sizes":[],"default_left":[0,0,0,0,0,0,0,0,0,0,0,0,0,0,0,0,0,0,0,0,0,0,0,0,0,0,0,0,0,0,0],"id":39,"left_children":[1,3,5,7,9,11,13,15,17,19,21,23,25,27,29,-1,-1,-1,-1,-1,-1,-1,-1,-1,-1,-1,-1,-1,-1,-1,-1],"loss_changes":[4.2022935E3,3.4118982E3,7.297544E2,3.517685E3,7.0739233E2,6.5383777E2,6.4279443E2,3.9808071E3,2.806795E3,4.098315E2,3.3243823E2,7.8477374E2,7.7053253E2,4.9513574E2,5.903069E2,0E0,0E0,0E0,0E0,0E0,0E0,0E0,0E0,0E0,0E0,0E0,0E0,0E0,0E0,0E0,0E0],"parents":[2147483647,0,0,1,1,2,2,3,3,4,4,5,5,6,6,7,7,8,8,9,9,10,10,11,11,12,12,13,13,14,14],"right_children":[2,4,6,8,10,12,14,16,18,20,22,24,26,28,30,-1,-1,-1,-1,-1,-1,-1,-1,-1,-1,-1,-1,-1,-1,-1,-1],"split_conditions":[1.2939855E1,1E0,-1.41152115E1,9.931422E0,1.8414836E0,-5.922194E0,-2.5380392E0,4.1918073E0,2.5497997E0,1.1329931E0,-6.7797594E0,2.585898E1,-2.0144674E1,2.2373646E1,-1.2491603E1,-8.514601E-3,2.0474657E-2,2.8981033E-3,-3.6599707E-2,-3.3924695E-2,2.9395744E-2,7.923316E-2,4.24046E-2,-1.1029675E-1,4.0048104E-2,3.7205633E-2,-2.3846013E-2,5.309059E-2,-1.9131093E-1,5.766912E-2,1.8918235E-2],"split_indices":[0,102,34,37,632,390,11,2,136,30,3,159,34,482,38,0,0,0,0,0,0,0,0,0,0,0,0,0,0,0,0],"split_type":[0,0,0,0,0,0,0,0,0,0,0,0,0,0,0,0,0,0,0,0,0,0,0,0,0,0,0,0,0,0,0],"sum_hessian":[3.991545E5,3.3805138E5,6.1103125E4,3.2278138E5,1.5269997E4,9.938477E3,5.116465E4,2.3860355E5,8.417783E4,4.741289E3,1.0528709E4,1.5620985E3,8.376378E3,1.0244498E4,4.092015E4,1.7343655E5,6.5166996E4,2.6057166E4,5.8120664E4,1.4896189E3,3.25167E3,3.8899656E3,6.638743E3,1.0424114E3,5.1968713E2,4.6664575E3,3.7099204E3,1.016188E4,8.261888E1,4.404803E3,3.6515348E4],"tree_param":{"num_deleted":"0","num_feature":"720","num_nodes":"31","size_leaf_vector":"1"}},{"base_weights":[1.6828979E-3,-4.7438122E-2,1.8546385E-1,-1.6599073E-1,3.3953108E-2,5.332923E-1,1.4465563E-1,-2.8983137E-1,1.08884886E-1,-4.6344437E-2,2.1791846E-1,3.644516E-2,6.2195265E-1,2.8734714E-1,2.8194143E-2,3.0349577E-2,-3.5326142E-2,4.4638783E-2,2.443948E-3,-1.1964012E-2,2.3577547E-2,5.3382613E-2,1.0400774E-2,7.286301E-2,-4.3716375E-2,6.7614354E-2,-5.9011232E-2,6.260381E-2,2.2078663E-2,-2.8086001E-2,1.12738E-2],"categories":[],"categories_nodes":[],"categories_segments":[],"categories_sizes":[],"default_left":[0,0,0,0,0,0,0,0,0,0,0,0,0,0,0,0,0,0,0,0,0,0,0,0,0,0,0,0,0,0,0],"id":40,"left_children":[1,3,5,7,9,11,13,15,17,19,21,23,25,27,29,-1,-1,-1,-1,-1,-1,-1,-1,-1,-1,-1,-1,-1,-1,-1,-1],"loss_changes":[3.5953237E3,3.0324033E3,1.1921995E3,4.3548203E3,2.7525952E3,3.8848706E2,1.249313E3,3.3192866E3,1.1324636E3,2.6823892E3,2.0374307E3,4.3847974E2,4.919729E2,7.6148145E2,1.0816243E3,0E0,0E0,0E0,0E0,0E0,0E0,0E0,0E0,0E0,0E0,0E0,0E0,0E0,0E0,0E0,0E0],"parents":[2147483647,0,0,1,1,2,2,3,3,4,4,5,5,6,6,7,7,8,8,9,9,10,10,11,11,12,12,13,13,14,14],"right_children":[2,4,6,8,10,12,14,16,18,20,22,24,26,28,30,-1,-1,-1,-1,-1,-1,-1,-1,-1,-1,-1,-1,-1,-1,-1,-1],"split_conditions":[7.4016366E0,2.0501142E0,-7.5830684E0,3.152872E0,1.0068578E1,-2.061424E0,0E0,-1.1387414E1,-9.065885E0,3.44936E0,1.5558736E0,-9.6626407E-1,2.9264286E-1,1E0,-1.2447898E0,3.0349577E-2,-3.5326142E-2,4.4638783E-2,2.443948E-3,-1.1964012E-2,2.3577547E-2,5.3382613E-2,1.0400774E-2,7.286301E-2,-4.3716375E-2,6.7614354E-2,-5.9011232E-2,6.260381E-2,2.2078663E-2,-2.8086001E-2,1.12738E-2],"split_indices":[486,31,639,362,36,139,624,153,31,639,38,153,378,203,615,0,0,0,0,0,0,0,0,0,0,0,0,0,0,0,0],"split_type":[0,0,0,0,0,0,0,0,0,0,0,0,0,0,0,0,0,0,0,0,0,0,0,0,0,0,0,0,0,0,0],"sum_hessian":[3.9826116E5,3.1426506E5,8.39961E4,1.2792761E5,1.8633745E5,8.818618E3,7.5177484E4,8.819345E4,3.9734152E4,1.29718445E5,5.6619004E4,1.3355707E3,7.483048E3,3.3783562E4,4.139392E4,8.517419E3,7.967603E4,7.951221E3,3.1782932E4,1.0296768E5,2.6750768E4,1.5004224E4,4.161478E4,5.4236273E2,7.9320795E2,7.163225E3,3.1982248E2,5.5473984E3,2.8236166E4,8.890811E3,3.2503111E4],"tree_param":{"num_deleted":"0","num_feature":"720","num_nodes":"31","size_leaf_vector":"1"}},{"base_weights":[9.173455E-3,-1.14417635E-2,4.3671423E-1,-4.6488997E-2,2.3545066E-1,2.130156E-1,5.270526E-1,3.473494E-2,-1.7951949E-1,1.4514086E-1,5.755437E-1,1.0433719E0,1.3869673E-1,3.4429E-1,6.9524026E-1,-1.8567635E-2,1.16255665E-2,1.3602471E-1,-1.9409208E-2,3.7432965E-2,-1.3839382E-3,6.6575736E-2,-1.2264272E-1,-2.2737496E-1,1.1708378E-1,-2.1176718E-2,2.9271368E-2,2.3666683E-3,5.3193767E-2,4.8851386E-2,8.42044E-2],"categories":[],"categories_nodes":[],"categories_segments":[],"categories_sizes":[],"default_left":[0,0,0,0,0,0,0,0,0,0,0,0,0,0,0,0,0,0,0,0,0,0,0,0,0,0,0,0,0,0,0],"id":41,"left_children":[1,3,5,7,9,11,13,15,17,19,21,23,25,27,29,-1,-1,-1,-1,-1,-1,-1,-1,-1,-1,-1,-1,-1,-1,-1,-1],"loss_changes":[3.5050813E3,3.2827998E3,3.695686E2,3.5897988E3,1.4483989E3,3.247068E2,4.0028857E2,3.7064802E3,2.82632E3,1.3578658E3,1.6094065E3,1.8544232E2,2.609226E2,3.758039E2,2.0549194E2,0E0,0E0,0E0,0E0,0E0,0E0,0E0,0E0,0E0,0E0,0E0,0E0,0E0,0E0,0E0,0E0],"parents":[2147483647,0,0,1,1,2,2,3,3,4,4,5,5,6,6,7,7,8,8,9,9,10,10,11,11,12,12,13,13,14,14],"right_children":[2,4,6,8,10,12,14,16,18,20,22,24,26,28,30,-1,-1,-1,-1,-1,-1,-1,-1,-1,-1,-1,-1,-1,-1,-1,-1],"split_conditions":[1E0,1.0112315E1,-4.729457E0,7.7708536E-1,9.148266E0,-1.3780269E1,-4.480198E0,0E0,-1.6115528E1,4.8742843E0,6.6795964E0,-1.4078928E0,-5.829136E-2,0E0,0E0,-1.8567635E-2,1.16255665E-2,1.3602471E-1,-1.9409208E-2,3.7432965E-2,-1.3839382E-3,6.6575736E-2,-1.2264272E-1,-2.2737496E-1,1.1708378E-1,-2.1176718E-2,2.9271368E-2,2.3666683E-3,5.3193767E-2,4.8851386E-2,8.42044E-2],"split_indices":[342,31,393,124,514,367,39,36,33,26,616,138,10,141,489,0,0,0,0,0,0,0,0,0,0,0,0,0,0,0,0],"split_type":[0,0,0,0,0,0,0,0,0,0,0,0,0,0,0,0,0,0,0,0,0,0,0,0,0,0,0,0,0,0,0],"sum_hessian":[3.976774E5,3.7938516E5,1.8292271E4,3.322254E5,4.7159734E4,5.2630654E3,1.3029206E4,2.062791E5,1.2594632E5,3.7265516E4,9.894222E3,4.3128854E2,4.831777E3,6.245512E3,6.783694E3,5.5694387E4,1.505847E5,1.179935E3,1.2476639E5,1.5262075E4,2.200344E4,9.423096E3,4.7112598E2,1.5336606E1,4.1595193E2,1.4750168E3,3.35676E3,2.3061855E3,3.9393267E3,2.818732E3,3.9649617E3],"tree_param":{"num_deleted":"0","num_feature":"720","num_nodes":"31","size_leaf_vector":"1"}},{"base_weights":[-4.3971292E-4,-2.1316955E-2,4.0990952E-1,-6.9675036E-2,1.4534883E-1,5.704629E-1,2.0170279E-1,-9.6400276E-2,2.845308E-1,-5.501201E-2,2.0473224E-1,7.400168E-1,1.5395124E-1,-2.8787626E-2,4.5256236E-1,-1.4219713E-2,1.1676098E-2,1.1240095E-1,2.3281898E-2,-2.7939668E-2,2.0616876E-2,3.158057E-2,4.9716397E-3,5.440085E-2,9.263877E-2,-1.30239995E-2,6.1752558E-2,-3.1087596E-2,2.7112095E-2,4.8111852E-2,-2.262179E-1],"categories":[],"categories_nodes":[],"categories_segments":[],"categories_sizes":[],"default_left":[0,0,0,0,0,0,0,0,0,0,0,0,0,0,0,0,0,0,0,0,0,0,0,0,0,0,0,0,0,0,0],"id":42,"left_children":[1,3,5,7,9,11,13,15,17,19,21,23,25,27,29,-1,-1,-1,-1,-1,-1,-1,-1,-1,-1,-1,-1,-1,-1,-1,-1],"loss_changes":[3.3920315E3,3.036675E3,6.406738E2,2.764546E3,1.00820325E3,7.641875E2,4.8267197E2,2.6509365E3,8.8919006E2,1.1354253E3,1.1254187E3,2.8045898E2,4.1274442E2,3.6820847E2,3.109613E2,0E0,0E0,0E0,0E0,0E0,0E0,0E0,0E0,0E0,0E0,0E0,0E0,0E0,0E0,0E0,0E0],"parents":[2147483647,0,0,1,1,2,2,3,3,4,4,5,5,6,6,7,7,8,8,9,9,10,10,11,11,12,12,13,13,14,14],"right_children":[2,4,6,8,10,12,14,16,18,20,22,24,26,28,30,-1,-1,-1,-1,-1,-1,-1,-1,-1,-1,-1,-1,-1,-1,-1,-1],"split_conditions":[1E0,6.9112678E0,1E0,1E0,0E0,1.1429107E0,-2.233052E-2,6.6318536E0,-1.39714575E1,3.44936E0,1.0741172E-1,1E0,2.4150698E0,2.861211E0,1.3566617E1,-1.4219713E-2,1.1676098E-2,1.1240095E-1,2.3281898E-2,-2.7939668E-2,2.0616876E-2,3.158057E-2,4.9716397E-3,5.440085E-2,9.263877E-2,-1.30239995E-2,6.1752558E-2,-3.1087596E-2,2.7112095E-2,4.8111852E-2,-2.262179E-1],"split_indices":[102,246,82,207,636,138,10,19,615,39,123,596,39,158,514,0,0,0,0,0,0,0,0,0,0,0,0,0,0,0,0],"split_type":[0,0,0,0,0,0,0,0,0,0,0,0,0,0,0,0,0,0,0,0,0,0,0,0,0,0,0,0,0,0,0],"sum_hessian":[3.9594144E5,3.7677338E5,1.916806E4,2.9203888E5,8.473449E4,1.0821554E4,8.346508E3,2.7155078E5,2.0488096E4,1.9372234E4,6.5362258E4,7.690231E3,3.1313228E3,4.3503135E3,3.996194E3,2.2352717E5,4.80236E4,1.1876299E3,1.9300465E4,1.0420093E4,8.952143E3,3.807753E4,2.7284727E4,3.7501135E3,3.9401174E3,1.941697E3,1.1896257E3,2.2417395E3,2.1085742E3,3.9554102E3,4.0783897E1],"tree_param":{"num_deleted":"0","num_feature":"720","num_nodes":"31","size_leaf_vector":"1"}},{"base_weights":[1.0504345E-3,-3.1886987E-2,2.4176271E-1,-6.6744305E-2,2.537327E-1,3.4423253E-1,6.704138E-2,1.2834829E-1,-1.293567E-1,-3.1934524E-1,2.9889375E-1,2.92207E-1,6.173527E-1,2.620026E-1,-8.1471704E-2,5.2163885E-3,6.2258493E-2,-1.7741466E-2,2.721318E-2,-4.4741914E-2,8.695488E-2,1.3482474E-2,4.0064055E-2,5.3797215E-2,2.264171E-2,1.6347548E-2,7.5298935E-2,1.6535817E-2,6.263043E-2,5.1968068E-2,-2.0419683E-2],"categories":[],"categories_nodes":[],"categories_segments":[],"categories_sizes":[],"default_left":[0,0,0,0,0,0,0,0,0,0,0,0,0,0,0,0,0,0,0,0,0,0,0,0,0,0,0,0,0,0,0],"id":43,"left_children":[1,3,5,7,9,11,13,15,17,19,21,23,25,27,29,-1,-1,-1,-1,-1,-1,-1,-1,-1,-1,-1,-1,-1,-1,-1,-1],"loss_changes":[3.13304E3,3.4607134E3,8.5153564E2,3.784224E3,9.7858984E2,4.258164E2,5.0915625E2,2.8340679E3,4.5251787E3,4.2098782E2,5.849946E2,4.070935E2,2.9513916E2,2.6759253E2,7.3652545E2,0E0,0E0,0E0,0E0,0E0,0E0,0E0,0E0,0E0,0E0,0E0,0E0,0E0,0E0,0E0,0E0],"parents":[2147483647,0,0,1,1,2,2,3,3,4,4,5,5,6,6,7,7,8,8,9,9,10,10,11,11,12,12,13,13,14,14],"right_children":[2,4,6,8,10,12,14,16,18,20,22,24,26,28,30,-1,-1,-1,-1,-1,-1,-1,-1,-1,-1,-1,-1,-1,-1,-1,-1],"split_conditions":[1E0,1E0,1E0,-5.8592515E0,1E0,1E0,1E0,5.912285E0,1E0,6.34581E0,0E0,-2.5163598E0,0E0,1E0,-8.549553E0,5.2163885E-3,6.2258493E-2,-1.7741466E-2,2.721318E-2,-4.4741914E-2,8.695488E-2,1.3482474E-2,4.0064055E-2,5.3797215E-2,2.264171E-2,1.6347548E-2,7.5298935E-2,1.6535817E-2,6.263043E-2,5.1968068E-2,-2.0419683E-2],"split_indices":[450,210,202,39,319,453,82,15,330,173,249,146,249,462,514,0,0,0,0,0,0,0,0,0,0,0,0,0,0,0,0],"split_type":[0,0,0,0,0,0,0,0,0,0,0,0,0,0,0,0,0,0,0,0,0,0,0,0,0,0,0,0,0,0,0],"sum_hessian":[3.951627E5,3.476003E5,4.7562383E4,3.0979356E5,3.780675E4,2.997929E4,1.7583094E4,7.526766E4,2.3452589E5,2.7612578E3,3.5045492E4,2.5184137E4,4.795151E3,7.6023325E3,9.980761E3,6.5216E4,1.0051655E4,2.0945483E5,2.5071068E4,2.4932913E3,2.6796677E2,1.3415317E4,2.1630176E4,5.3165244E3,1.9867613E4,1.1037863E3,3.691365E3,6.009536E3,1.5927965E3,1.691575E3,8.289186E3],"tree_param":{"num_deleted":"0","num_feature":"720","num_nodes":"31","size_leaf_vector":"1"}},{"base_weights":[-3.6074215E-4,-2.3717072E-2,3.16118E-1,-1.2418129E-1,6.1852064E-2,5.0767475E-1,1.4606084E-1,-1.653517E-1,2.1472296E-1,2.7469924E-1,3.3098252E-3,7.0566785E-1,2.6285818E-1,-3.0169E-1,2.5911343E-1,-2.2869557E-2,1.0867576E-2,1.9885454E-1,1.9274052E-2,1.4830752E-2,6.609561E-2,-1.483196E-2,9.989481E-3,7.4047774E-2,-1.4563794E-1,2.2600174E-2,2.3681347E-1,-2.2097768E-2,-3.9715895E-1,-1.2595505E-1,3.2317474E-2],"categories":[],"categories_nodes":[],"categories_segments":[],"categories_sizes":[],"default_left":[0,0,0,0,0,0,0,0,0,0,0,0,0,0,0,0,0,0,0,0,0,0,0,0,0,0,0,0,0,0,0],"id":44,"left_children":[1,3,5,7,9,11,13,15,17,19,21,23,25,27,29,-1,-1,-1,-1,-1,-1,-1,-1,-1,-1,-1,-1,-1,-1,-1,-1],"loss_changes":[2.909606E3,3.1513093E3,8.812058E2,2.3526506E3,2.466724E3,6.164783E2,7.255711E2,2.6097632E3,7.1181586E2,2.0846548E3,2.273826E3,5.3039136E2,4.409688E2,8.550748E2,1.1137273E3,0E0,0E0,0E0,0E0,0E0,0E0,0E0,0E0,0E0,0E0,0E0,0E0,0E0,0E0,0E0,0E0],"parents":[2147483647,0,0,1,1,2,2,3,3,4,4,5,5,6,6,7,7,8,8,9,9,10,10,11,11,12,12,13,13,14,14],"right_children":[2,4,6,8,10,12,14,16,18,20,22,24,26,28,30,-1,-1,-1,-1,-1,-1,-1,-1,-1,-1,-1,-1,-1,-1,-1,-1],"split_conditions":[1E0,-9.3463904E-1,6.1494966E0,9.52626E0,1E0,1E0,6.466499E0,6.6318536E0,-1.8181843E1,1E0,2.0501142E0,1.8429712E1,1.6447733E1,9.347076E0,-1.12009945E1,-2.2869557E-2,1.0867576E-2,1.9885454E-1,1.9274052E-2,1.4830752E-2,6.609561E-2,-1.483196E-2,9.989481E-3,7.4047774E-2,-1.4563794E-1,2.2600174E-2,2.3681347E-1,-2.2097768E-2,-3.9715895E-1,-1.2595505E-1,3.2317474E-2],"split_indices":[87,6,1,11,323,82,500,19,487,324,391,619,618,392,24,0,0,0,0,0,0,0,0,0,0,0,0,0,0,0,0],"split_type":[0,0,0,0,0,0,0,0,0,0,0,0,0,0,0,0,0,0,0,0,0,0,0,0,0,0,0,0,0,0,0],"sum_hessian":[3.9362516E5,3.6657278E5,2.7052375E4,1.6861103E5,1.9796175E5,1.2721061E4,1.4331314E4,1.5034722E5,1.8263814E4,4.2702133E4,1.5525961E5,7.032064E3,5.6889966E3,